solver_type L2R_LR_DUAL
nr_class 5
label -1 1 4 3 2
nr_feature 71513
bias -1.000000000000000
w
0 0 0 0 0 
0 0 0 0 0 
0 0 0 0 0 
0 0 0 0 0 
0 0 0 0 0 
0 0 0 0 0 
-0.0009407546090815292 0.1406773582813264 -0.1468939032945572 -0.05969998752680741 -0.1536005810854427 
0 0 0 0 0 
0 0 0 0 0 
0.1626575142586222 -0.1201342594359344 -0.01405939406390762 0.1485488295494670 -0.3103948983139359 
0 0 0 0 0 
0 0 0 0 0 
0 0 0 0 0 
0 0 0 0 0 
0 0 0 0 0 
-0.02128184685073980 0.03831649448351093 -0.001950130844913409 -0.001383634746284887 -0.0001243842148968958 
0 0 0 0 0 
0 0 0 0 0 
0 0 0 0 0 
0 0 0 0 0 
0 0 0 0 0 
0 0 0 0 0 
0 0 0 0 0 
0 0 0 0 0 
0 0 0 0 0 
0 0 0 0 0 
0 0 0 0 0 
0 0 0 0 0 
0 0 0 0 0 
-0.3211053328524435 0.1406733778329194 0.3507245935190286 -0.03362101151717149 0.2206385867300004 
-0.05529352522107166 -0.03378879713457991 0.1883926597837159 -0.0001459727408396694 -0.001906600595674046 
0.07581844812653092 -0.07880106629719882 -0.05120045460708340 -0.03421464395522286 -0.006255354723285624 
0 0 0 0 0 
0 0 0 0 0 
0 0 0 0 0 
0 0 0 0 0 
0 0 0 0 0 
0 0 0 0 0 
0 0 0 0 0 
0 0 0 0 0 
0 0 0 0 0 
0 0 0 0 0 
0 0 0 0 0 
0 0 0 0 0 
0 0 0 0 0 
0 0 0 0 0 
0 0 0 0 0 
0 0 0 0 0 
0 0 0 0 0 
0 0 0 0 0 
-0.08088998657879809 -0.1090337786748569 0.3222870643024260 -0.02287327510828053 -0.04142975887266555 
0 0 0 0 0 
0 0 0 0 0 
0 0 0 0 0 
0 0 0 0 0 
0 0 0 0 0 
0 0 0 0 0 
0 0 0 0 0 
0 0 0 0 0 
0 0 0 0 0 
0 0 0 0 0 
0 0 0 0 0 
-0.001868080700286267 0.03812021338926815 -0.03728174725528671 -0.008447186902816860 -0.05488975915549601 
0.1586326019037596 -0.04515831419875267 -0.02045463812955833 -0.08913406195783610 -0.01411620739641135 
0 0 0 0 0 
0 0 0 0 0 
0 0 0 0 0 
0 0 0 0 0 
0 0 0 0 0 
0 0 0 0 0 
0 0 0 0 0 
-0.2808446436729365 -0.02676822437843082 0.2000832156625907 -0.05997115188320289 -0.07357373185239856 
0 0 0 0 0 
0 0 0 0 0 
0 0 0 0 0 
0 0 0 0 0 
0 0 0 0 0 
0 0 0 0 0 
0 0 0 0 0 
0 0 0 0 0 
0 0 0 0 0 
0.01132100897064557 -0.06601215964548433 0.1490130083264878 -0.05861616556063726 -0.05927704965737674 
0 0 0 0 0 
-0.001107606601392046 -0.05519635007865053 0.06263559144433149 -0.05113164133530069 -0.03624363315884965 
0 0 0 0 0 
0.3526799274121407 -0.2331592588162862 -0.3042941653449572 -0.04325519593530273 -0.1205352849620414 
0 0 0 0 0 
0 0 0 0 0 
0 0 0 0 0 
0 0 0 0 0 
0 0 0 0 0 
0.01050068656899481 -0.1716552379430868 0.07116812482054649 0.3044470127904321 -0.08617310387343131 
0 0 0 0 0 
0 0 0 0 0 
0 0 0 0 0 
0 0 0 0 0 
0 0 0 0 0 
-0.01580645970938088 0.03120144819174384 0.05088534574373086 -0.04028944006578181 -0.02540788940917058 
0 0 0 0 0 
0.004934924743538784 -0.009774167270738028 -0.01546426098864353 -0.0005985247327232429 -0.001739678816113274 
0.004934924743538784 -0.009774167270738028 -0.01546426098864353 -0.0005985247327232429 -0.001739678816113274 
-0.007195296290128514 0.02271735926283512 0.1781691256795779 0.1467423337298961 -0.0001391854334387308 
0 0 0 0 0 
0 0 0 0 0 
0 0 0 0 0 
0 0 0 0 0 
0 0 0 0 0 
0 0 0 0 0 
0 0 0 0 0 
0 0 0 0 0 
0 0 0 0 0 
0 0 0 0 0 
0 0 0 0 0 
0 0 0 0 0 
0 0 0 0 0 
0 0 0 0 0 
0 0 0 0 0 
0 0 0 0 0 
0 0 0 0 0 
0 0 0 0 0 
0 0 0 0 0 
0 0 0 0 0 
0 0 0 0 0 
0 0 0 0 0 
0 0 0 0 0 
0 0 0 0 0 
0 0 0 0 0 
0 0 0 0 0 
0 0 0 0 0 
0 0 0 0 0 
-0.4271527240069586 0.2111145524701637 -0.04726703226724974 -0.2733765151887815 0.5246919700692411 
0 0 0 0 0 
0 0 0 0 0 
0 0 0 0 0 
0 0 0 0 0 
0 0 0 0 0 
0 0 0 0 0 
0 0 0 0 0 
0 0 0 0 0 
0 0 0 0 0 
-0.003071566674621263 -0.0003809185803752755 0.06889605142099248 0.006432985475510189 -0.001107407937964834 
0 0 0 0 0 
0 0 0 0 0 
0 0 0 0 0 
0 0 0 0 0 
0 0 0 0 0 
0 0 0 0 0 
0 0 0 0 0 
0 0 0 0 0 
0 0 0 0 0 
0 0 0 0 0 
0 0 0 0 0 
0 0 0 0 0 
0 0 0 0 0 
-0.07571899449873841 0.2367965271919389 -0.03455620166913992 -0.01020894209213635 -0.005045361797189183 
0 0 0 0 0 
0 0 0 0 0 
0 0 0 0 0 
0 0 0 0 0 
0 0 0 0 0 
0 0 0 0 0 
0 0 0 0 0 
0 0 0 0 0 
-0.3560928292047583 0.3244822405271794 -0.05632727401123044 -0.1590927279707211 0.2071228901363635 
0 0 0 0 0 
0 0 0 0 0 
0 0 0 0 0 
0 0 0 0 0 
0 0 0 0 0 
0 0 0 0 0 
0 0 0 0 0 
0 0 0 0 0 
0 0 0 0 0 
0 0 0 0 0 
0 0 0 0 0 
0 0 0 0 0 
0 0 0 0 0 
0 0 0 0 0 
0 0 0 0 0 
0 0 0 0 0 
0 0 0 0 0 
0 0 0 0 0 
0 0 0 0 0 
0 0 0 0 0 
0 0 0 0 0 
0 0 0 0 0 
0 0 0 0 0 
0 0 0 0 0 
0 0 0 0 0 
0 0 0 0 0 
0 0 0 0 0 
0 0 0 0 0 
0 0 0 0 0 
-0.005368471155299525 -0.03417077888101607 0.09342996067766380 -0.02456755796116619 -0.006677824037303904 
0 0 0 0 0 
0 0 0 0 0 
0 0 0 0 0 
0 0 0 0 0 
0 0 0 0 0 
0 0 0 0 0 
0 0 0 0 0 
0.08461395365785283 -0.07308564404686758 -0.06050452470810780 -0.04569021824504774 -0.03322331396838320 
0 0 0 0 0 
0 0 0 0 0 
0 0 0 0 0 
0.1362372533554429 -0.2319596132448160 -0.1111507510497837 -0.1999235767395491 -0.1517636684593846 
0 0 0 0 0 
0 0 0 0 0 
0 0 0 0 0 
0 0 0 0 0 
0 0 0 0 0 
0 0 0 0 0 
0 0 0 0 0 
0.09608300684249528 -0.02662138739586211 -0.03919707070628762 -0.02012507741186147 -0.07167034604647378 
0 0 0 0 0 
0 0 0 0 0 
0 0 0 0 0 
0 0 0 0 0 
0 0 0 0 0 
0 0 0 0 0 
0 0 0 0 0 
0.03235354894233287 -0.04056901841081653 -0.009281722302268440 -0.08209224925772778 -0.005443991179894566 
0 0 0 0 0 
0.06156192254589556 -0.1611702495990935 0.2239785132685658 -0.1029395800204360 0.009452111217724296 
0 0 0 0 0 
0 0 0 0 0 
0 0 0 0 0 
-0.003166730371996379 -0.06631895528056580 0.01904416767457384 -0.02043538044896440 -0.01120979485465835 
0 0 0 0 0 
0 0 0 0 0 
0 0 0 0 0 
0 0 0 0 0 
0 0 0 0 0 
0.06873341650704161 -0.09353118093483280 -0.003652062221730044 -0.0004473045000980759 -0.009471174964321216 
0 0 0 0 0 
0 0 0 0 0 
-0.004429597007660590 0.1715133731817996 -0.01121581839741482 -0.0008038894639225334 -0.02648823628318786 
0 0 0 0 0 
0 0 0 0 0 
0 0 0 0 0 
0 0 0 0 0 
0 0 0 0 0 
0 0 0 0 0 
0 0 0 0 0 
0 0 0 0 0 
0 0 0 0 0 
0 0 0 0 0 
0 0 0 0 0 
0 0 0 0 0 
0 0 0 0 0 
0 0 0 0 0 
0 0 0 0 0 
0 0 0 0 0 
0 0 0 0 0 
0 0 0 0 0 
0 0 0 0 0 
-0.003346166460837757 -0.2323772545622904 0.2754862328688311 -0.06466677394656552 -0.04016702077376377 
0 0 0 0 0 
0 0 0 0 0 
0 0 0 0 0 
0 0 0 0 0 
0 0 0 0 0 
0 0 0 0 0 
0 0 0 0 0 
0 0 0 0 0 
0 0 0 0 0 
0 0 0 0 0 
0 0 0 0 0 
0 0 0 0 0 
0 0 0 0 0 
0 0 0 0 0 
0 0 0 0 0 
0 0 0 0 0 
0 0 0 0 0 
0 0 0 0 0 
0 0 0 0 0 
0 0 0 0 0 
-0.02060730674337273 -0.1173835139369552 0.3993509000861369 0.02979644483581247 -0.09824097921232755 
0 0 0 0 0 
0.2758665699496614 -0.4635225718645591 0.2469803140095107 -0.4853679784724835 0.04908553015440124 
0 0 0 0 0 
-0.01895213868128952 0.05347621249427565 -0.0009472997316720968 -0.0007507879344442016 0.08495774966988298 
-0.001868036347745096 -0.009405193279004572 -0.0002650650877999016 -0.0001120045661449942 0.08783882912548632 
-0.06677958937272330 -0.1136445716535859 0.0002119379157609408 -0.04689143481653104 -0.08437509098895690 
0 0 0 0 0 
0 0 0 0 0 
-4.614845434520509e-05 0.007841514985215868 -0.01023396118257926 -0.02522277455491729 -0.01186665915804463 
0 0 0 0 0 
0.03282259479684390 -0.02009263946686223 -0.02472292526112079 -0.0006139797423749557 -0.0007367235006455426 
0 0 0 0 0 
0 0 0 0 0 
0 0 0 0 0 
0 0 0 0 0 
0.04365340260111732 -0.07877815687461293 -0.04823357197694295 -0.01821867601189093 -0.01100353576454043 
0 0 0 0 0 
0 0 0 0 0 
0 0 0 0 0 
0 0 0 0 0 
0 0 0 0 0 
0 0 0 0 0 
0 0 0 0 0 
0 0 0 0 0 
0 0 0 0 0 
0 0 0 0 0 
0 0 0 0 0 
0 0 0 0 0 
0 0 0 0 0 
0 0 0 0 0 
0 0 0 0 0 
0 0 0 0 0 
0 0 0 0 0 
0 0 0 0 0 
0 0 0 0 0 
0 0 0 0 0 
0 0 0 0 0 
0 0 0 0 0 
0 0 0 0 0 
0 0 0 0 0 
0 0 0 0 0 
0 0 0 0 0 
0 0 0 0 0 
0 0 0 0 0 
0 0 0 0 0 
0.2374056546538707 -0.2950301597793174 0.1919336052360799 -0.01455790029342402 -0.1942534189889835 
0 0 0 0 0 
0 0 0 0 0 
0 0 0 0 0 
0 0 0 0 0 
0.1585673587530764 -0.1836426896294071 -0.08204690973459287 0.06130170161432654 -0.09304019012110162 
-0.002161462856686832 -0.06153606493494965 -0.02543632098065554 0.01386991159458936 -0.03400296398044567 
0 0 0 0 0 
0 0 0 0 0 
0.005502584659320927 -0.06181423064744129 -0.05507016563867933 -0.03097326656700119 0.05196763966349272 
0 0 0 0 0 
0 0 0 0 0 
-0.0006915693695733936 -0.04395792737202504 -0.04364992852240950 -0.01998519636275663 0.06652849776026366 
0 0 0 0 0 
0 0 0 0 0 
0 0 0 0 0 
0 0 0 0 0 
0 0 0 0 0 
0 0 0 0 0 
0 0 0 0 0 
0 0 0 0 0 
0 0 0 0 0 
0 0 0 0 0 
0 0 0 0 0 
0 0 0 0 0 
0 0 0 0 0 
0 0 0 0 0 
0 0 0 0 0 
0 0 0 0 0 
0 0 0 0 0 
0 0 0 0 0 
0 0 0 0 0 
0 0 0 0 0 
0 0 0 0 0 
0.08406162564050972 0.01714818528791684 0.03582399401226556 -0.05963209810952635 -0.09275656258418118 
0 0 0 0 0 
0 0 0 0 0 
0 0 0 0 0 
0 0 0 0 0 
0 0 0 0 0 
0 0 0 0 0 
0 0 0 0 0 
0 0 0 0 0 
0 0 0 0 0 
0 0 0 0 0 
0 0 0 0 0 
0 0 0 0 0 
0 0 0 0 0 
0 0 0 0 0 
0 0 0 0 0 
0 0 0 0 0 
0 0 0 0 0 
0 0 0 0 0 
0 0 0 0 0 
0.07235643597100701 -0.06109994753891893 -0.01633105552136659 -0.01786907163600234 -0.02627018595594770 
0 0 0 0 0 
0 0 0 0 0 
0 0 0 0 0 
0 0 0 0 0 
0 0 0 0 0 
0 0 0 0 0 
0 0 0 0 0 
0 0 0 0 0 
0 0 0 0 0 
0 0 0 0 0 
0 0 0 0 0 
0 0 0 0 0 
-0.4660953249769025 0.2766127463852046 -0.2799413531451299 -0.2206651544297749 -0.3637952697941731 
0 0 0 0 0 
0 0 0 0 0 
0 0 0 0 0 
0 0 0 0 0 
0 0 0 0 0 
0.05177531598551173 -0.03611791998856998 -0.05818934084436130 0.03379824518903751 -0.04428774485031112 
0 0 0 0 0 
0.01027233020985607 -0.01518132435000489 -0.01016100584550701 -0.001122444695150407 -0.006142248166719647 
0 0 0 0 0 
-0.02955143885041413 -0.006300129147926777 -0.1450575257152335 -0.06158860695797645 0.1171068840581758 
0 0 0 0 0 
0 0 0 0 0 
-0.02718327151473419 0.2025747815701117 -0.1330512471025104 -0.1439997873927060 -0.2085943067834252 
0 0 0 0 0 
0 0 0 0 0 
0 0 0 0 0 
0 0 0 0 0 
0 0 0 0 0 
0 0 0 0 0 
0 0 0 0 0 
0 0 0 0 0 
0 0 0 0 0 
0 0 0 0 0 
0 0 0 0 0 
0 0 0 0 0 
0 0 0 0 0 
0 0 0 0 0 
0 0 0 0 0 
0 0 0 0 0 
0 0 0 0 0 
0 0 0 0 0 
0 0 0 0 0 
0 0 0 0 0 
0 0 0 0 0 
0 0 0 0 0 
0 0 0 0 0 
0 0 0 0 0 
0 0 0 0 0 
0 0 0 0 0 
0 0 0 0 0 
-0.1461976092294627 -0.5202920538087455 0.07657442966723958 -0.0008796899719187229 0.2012033818951736 
0 0 0 0 0 
0 0 0 0 0 
0 0 0 0 0 
0 0 0 0 0 
0 0 0 0 0 
0 0 0 0 0 
0 0 0 0 0 
0 0 0 0 0 
0 0 0 0 0 
0 0 0 0 0 
0 0 0 0 0 
0 0 0 0 0 
0 0 0 0 0 
0 0 0 0 0 
0 0 0 0 0 
0 0 0 0 0 
0 0 0 0 0 
0 0 0 0 0 
0 0 0 0 0 
0 0 0 0 0 
0 0 0 0 0 
0 0 0 0 0 
0 0 0 0 0 
0 0 0 0 0 
0 0 0 0 0 
0 0 0 0 0 
0 0 0 0 0 
0 0 0 0 0 
0 0 0 0 0 
0 0 0 0 0 
0 0 0 0 0 
0 0 0 0 0 
0 0 0 0 0 
0 0 0 0 0 
0 0 0 0 0 
-0.04331243119620550 -0.06074874555462430 -0.03677899727344023 -0.01083369111391421 0.1340067467803799 
0 0 0 0 0 
0 0 0 0 0 
0 0 0 0 0 
0 0 0 0 0 
0 0 0 0 0 
0 0 0 0 0 
0 0 0 0 0 
0 0 0 0 0 
0 0 0 0 0 
-0.1664721122770829 0.4238239970438602 -0.05988099683375827 -0.01359716634650768 -0.05850066165181815 
-0.1841677165023249 0.2945581969472403 -0.006008773278191452 -0.001855766336980768 -0.002896055846573655 
0 0 0 0 0 
0 0 0 0 0 
0 0 0 0 0 
0 0 0 0 0 
0.01956368492552822 0.09114558670735226 -0.01659047630028007 -0.003294213106710070 -0.0007148466497484576 
0 0 0 0 0 
0 0 0 0 0 
0 0 0 0 0 
0 0 0 0 0 
0 0 0 0 0 
0 0 0 0 0 
0.06091492341698032 -0.4304950738379101 0.1833893077146733 -0.02194217377838842 -0.1295036443009952 
-0.1786822619234102 -0.05155844370661839 0.08344864722610047 0.1345196131954696 -0.05628048546786028 
-0.1406570399143138 0.1951540593061687 0.1757892889484474 -0.1168366606753159 0.04859000665262440 
0 0 0 0 0 
0 0 0 0 0 
0 0 0 0 0 
0 0 0 0 0 
0 0 0 0 0 
0 0 0 0 0 
0 0 0 0 0 
0 0 0 0 0 
0 0 0 0 0 
0 0 0 0 0 
0 0 0 0 0 
0 0 0 0 0 
0 0 0 0 0 
0 0 0 0 0 
0 0 0 0 0 
0 0 0 0 0 
0 0 0 0 0 
0 0 0 0 0 
0 0 0 0 0 
0 0 0 0 0 
0 0 0 0 0 
0 0 0 0 0 
0 0 0 0 0 
0 0 0 0 0 
0 0 0 0 0 
0 0 0 0 0 
0 0 0 0 0 
0 0 0 0 0 
0 0 0 0 0 
0 0 0 0 0 
0 0 0 0 0 
0 0 0 0 0 
0 0 0 0 0 
0 0 0 0 0 
0 0 0 0 0 
0 0 0 0 0 
0 0 0 0 0 
0 0 0 0 0 
0 0 0 0 0 
0 0 0 0 0 
0 0 0 0 0 
0 0 0 0 0 
0 0 0 0 0 
0 0 0 0 0 
0 0 0 0 0 
0 0 0 0 0 
0 0 0 0 0 
0 0 0 0 0 
0 0 0 0 0 
0 0 0 0 0 
0 0 0 0 0 
0 0 0 0 0 
0 0 0 0 0 
0 0 0 0 0 
0 0 0 0 0 
0 0 0 0 0 
0 0 0 0 0 
0 0 0 0 0 
0 0 0 0 0 
0 0 0 0 0 
0 0 0 0 0 
0 0 0 0 0 
0 0 0 0 0 
0 0 0 0 0 
0 0 0 0 0 
0 0 0 0 0 
0 0 0 0 0 
0 0 0 0 0 
0 0 0 0 0 
0 0 0 0 0 
0 0 0 0 0 
0 0 0 0 0 
0 0 0 0 0 
0 0 0 0 0 
0 0 0 0 0 
0 0 0 0 0 
0 0 0 0 0 
0 0 0 0 0 
0 0 0 0 0 
0 0 0 0 0 
0 0 0 0 0 
0 0 0 0 0 
0 0 0 0 0 
0 0 0 0 0 
0 0 0 0 0 
0 0 0 0 0 
0 0 0 0 0 
0 0 0 0 0 
0 0 0 0 0 
0 0 0 0 0 
0 0 0 0 0 
0 0 0 0 0 
0 0 0 0 0 
0 0 0 0 0 
0 0 0 0 0 
0 0 0 0 0 
0 0 0 0 0 
0 0 0 0 0 
0 0 0 0 0 
0 0 0 0 0 
0 0 0 0 0 
0 0 0 0 0 
0 0 0 0 0 
0 0 0 0 0 
0 0 0 0 0 
0 0 0 0 0 
0 0 0 0 0 
0 0 0 0 0 
0 0 0 0 0 
0 0 0 0 0 
0 0 0 0 0 
0 0 0 0 0 
0 0 0 0 0 
0 0 0 0 0 
0 0 0 0 0 
0 0 0 0 0 
0 0 0 0 0 
0 0 0 0 0 
0 0 0 0 0 
0 0 0 0 0 
0 0 0 0 0 
0 0 0 0 0 
0 0 0 0 0 
0 0 0 0 0 
0 0 0 0 0 
0 0 0 0 0 
0 0 0 0 0 
0 0 0 0 0 
0 0 0 0 0 
0 0 0 0 0 
0 0 0 0 0 
0 0 0 0 0 
0 0 0 0 0 
0 0 0 0 0 
0 0 0 0 0 
0 0 0 0 0 
0 0 0 0 0 
0 0 0 0 0 
0 0 0 0 0 
0 0 0 0 0 
0 0 0 0 0 
0 0 0 0 0 
0 0 0 0 0 
0 0 0 0 0 
0 0 0 0 0 
0.007818339157069771 -0.02814418177235863 -0.002387999997921371 -0.001150829848445674 -0.001607949745208168 
0.007818339157069771 -0.02814418177235863 -0.002387999997921371 -0.001150829848445674 -0.001607949745208168 
0 0 0 0 0 
0 0 0 0 0 
0 0 0 0 0 
0.1231361381782982 -0.2756559390840889 -0.02531486098573526 0.02242383476965923 -0.06428931894922071 
0 0 0 0 0 
0 0 0 0 0 
0 0 0 0 0 
0 0 0 0 0 
0 0 0 0 0 
0 0 0 0 0 
0 0 0 0 0 
0 0 0 0 0 
0 0 0 0 0 
0 0 0 0 0 
0 0 0 0 0 
0 0 0 0 0 
0 0 0 0 0 
0 0 0 0 0 
0 0 0 0 0 
0 0 0 0 0 
0 0 0 0 0 
0 0 0 0 0 
0 0 0 0 0 
0 0 0 0 0 
0 0 0 0 0 
0 0 0 0 0 
0 0 0 0 0 
0 0 0 0 0 
0 0 0 0 0 
0 0 0 0 0 
0 0 0 0 0 
0 0 0 0 0 
0 0 0 0 0 
0 0 0 0 0 
0 0 0 0 0 
0 0 0 0 0 
0 0 0 0 0 
0 0 0 0 0 
0 0 0 0 0 
0 0 0 0 0 
0 0 0 0 0 
0 0 0 0 0 
0.1437435519605768 -0.05486137361993291 -0.2382126245575589 -0.1077204530466573 0.03348563594204016 
0 0 0 0 0 
0 0 0 0 0 
0 0 0 0 0 
0 0 0 0 0 
0 0 0 0 0 
0 0 0 0 0 
0 0 0 0 0 
0 0 0 0 0 
0 0 0 0 0 
0 0 0 0 0 
0 0 0 0 0 
0 0 0 0 0 
0 0 0 0 0 
0.06992591601823074 -0.08679987890593727 -0.04243158261914802 -0.04093109324478327 -0.06352741281424343 
0 0 0 0 0 
0 0 0 0 0 
0 0 0 0 0 
0 0 0 0 0 
0 0 0 0 0 
0 0 0 0 0 
0 0 0 0 0 
0 0 0 0 0 
0 0 0 0 0 
0 0 0 0 0 
0 0 0 0 0 
0 0 0 0 0 
0 0 0 0 0 
0 0 0 0 0 
0 0 0 0 0 
0 0 0 0 0 
0 0 0 0 0 
0.06992591601823074 -0.08679987890593727 -0.04243158261914802 -0.04093109324478327 -0.06352741281424343 
0 0 0 0 0 
0 0 0 0 0 
0 0 0 0 0 
0 0 0 0 0 
0.4131174526410493 -0.4043552031354852 -0.2501402315086812 -0.1517171213650401 -0.1893969118467514 
0 0 0 0 0 
0 0 0 0 0 
0 0 0 0 0 
0 0 0 0 0 
0 0 0 0 0 
0 0 0 0 0 
0 0 0 0 0 
0 0 0 0 0 
0 0 0 0 0 
0 0 0 0 0 
0 0 0 0 0 
0 0 0 0 0 
0 0 0 0 0 
0 0 0 0 0 
0 0 0 0 0 
0 0 0 0 0 
0 0 0 0 0 
0 0 0 0 0 
0 0 0 0 0 
0 0 0 0 0 
0 0 0 0 0 
0 0 0 0 0 
0 0 0 0 0 
0 0 0 0 0 
0 0 0 0 0 
0 0 0 0 0 
0.1400351657844628 -0.1283613344634045 -0.1628606342473547 -0.07366016068279163 -0.1000779014556489 
0 0 0 0 0 
0 0 0 0 0 
0 0 0 0 0 
0 0 0 0 0 
0 0 0 0 0 
0 0 0 0 0 
0.09289241451094059 -0.09759782420057360 -0.05477218401308552 -0.05493622563759443 -0.07829683069987593 
0 0 0 0 0 
0 0 0 0 0 
0 0 0 0 0 
0 0 0 0 0 
0 0 0 0 0 
0 0 0 0 0 
0 0 0 0 0 
0 0 0 0 0 
0 0 0 0 0 
0 0 0 0 0 
0 0 0 0 0 
0 0 0 0 0 
0 0 0 0 0 
0 0 0 0 0 
0 0 0 0 0 
0 0 0 0 0 
0 0 0 0 0 
0 0 0 0 0 
0 0 0 0 0 
0 0 0 0 0 
0 0 0 0 0 
0 0 0 0 0 
0 0 0 0 0 
-0.009674019418019885 0.007195086632106759 0.1779626840618934 -0.005051953154319696 -0.006617864731095149 
0 0 0 0 0 
-0.009674019418019885 0.007195086632106759 0.1779626840618934 -0.005051953154319696 -0.006617864731095149 
0 0 0 0 0 
0 0 0 0 0 
0 0 0 0 0 
0 0 0 0 0 
0 0 0 0 0 
0 0 0 0 0 
0 0 0 0 0 
0 0 0 0 0 
0 0 0 0 0 
0 0 0 0 0 
0 0 0 0 0 
0 0 0 0 0 
0.01090243153849853 -0.09058691231733429 0.003148024881285722 -0.1204560352965233 0.01225454501920748 
0 0 0 0 0 
0 0 0 0 0 
0 0 0 0 0 
0 0 0 0 0 
0 0 0 0 0 
0 0 0 0 0 
-0.02599227070830886 0.1974183178195041 -0.1551799920904184 -0.07013617052531980 -0.07394689793116350 
0 0 0 0 0 
0 0 0 0 0 
0 0 0 0 0 
0 0 0 0 0 
0 0 0 0 0 
0 0 0 0 0 
0 0 0 0 0 
0 0 0 0 0 
0 0 0 0 0 
0 0 0 0 0 
0 0 0 0 0 
0 0 0 0 0 
0 0 0 0 0 
0 0 0 0 0 
0 0 0 0 0 
0 0 0 0 0 
0 0 0 0 0 
0 0 0 0 0 
0 0 0 0 0 
0 0 0 0 0 
0 0 0 0 0 
0 0 0 0 0 
0 0 0 0 0 
0 0 0 0 0 
-0.001793538718726288 -0.05801833745502148 -0.05448187568180084 -0.01468299681763115 0.1076636921347146 
0 0 0 0 0 
-0.1019335983613778 0.07855794628682247 -0.003131811938825918 -0.0005722764243799401 -0.004247628717469744 
0 0 0 0 0 
0 0 0 0 0 
0 0 0 0 0 
-0.05247756458983489 0.2145708660306993 -0.1274366647174879 -0.1000848331567039 -0.1014007620183463 
0 0 0 0 0 
0 0 0 0 0 
0 0 0 0 0 
0 0 0 0 0 
0 0 0 0 0 
0 0 0 0 0 
0 0 0 0 0 
0 0 0 0 0 
0 0 0 0 0 
0 0 0 0 0 
0 0 0 0 0 
0 0 0 0 0 
0 0 0 0 0 
0 0 0 0 0 
0 0 0 0 0 
0 0 0 0 0 
0 0 0 0 0 
0 0 0 0 0 
0 0 0 0 0 
0 0 0 0 0 
0 0 0 0 0 
0 0 0 0 0 
0 0 0 0 0 
0 0 0 0 0 
0 0 0 0 0 
0 0 0 0 0 
0 0 0 0 0 
0 0 0 0 0 
0.05535872391652713 -0.06068865454832285 -0.06965690775117349 -0.04733305110146489 -0.08961255397454562 
0 0 0 0 0 
0 0 0 0 0 
0 0 0 0 0 
0 0 0 0 0 
0 0 0 0 0 
0 0 0 0 0 
0 0 0 0 0 
0 0 0 0 0 
0 0 0 0 0 
0.03032909790637650 -0.02835412276689645 -0.008622114941431103 -0.003626418157070376 -0.009035446832527206 
0 0 0 0 0 
0 0 0 0 0 
0 0 0 0 0 
0 0 0 0 0 
0 0 0 0 0 
0 0 0 0 0 
0 0 0 0 0 
0 0 0 0 0 
0 0 0 0 0 
0 0 0 0 0 
0.09508442492912743 0.05480953987366634 -0.01839137892684828 -0.01174435125696488 -0.02649350040525297 
0 0 0 0 0 
0 0 0 0 0 
0 0 0 0 0 
0 0 0 0 0 
0 0 0 0 0 
0.03580401741328043 -0.04613768379000697 -0.005052784918928994 -0.002901436414131801 -0.01852373198338992 
0 0 0 0 0 
0 0 0 0 0 
0 0 0 0 0 
0 0 0 0 0 
0 0 0 0 0 
0 0 0 0 0 
0 0 0 0 0 
0 0 0 0 0 
0.1605743966949819 -0.1896611643141534 -0.1597661465564138 -0.02000460656196450 -0.1103833648833229 
0 0 0 0 0 
0 0 0 0 0 
0 0 0 0 0 
0 0 0 0 0 
0 0 0 0 0 
0 0 0 0 0 
0 0 0 0 0 
0 0 0 0 0 
0.04908770210693886 -0.07278960442965450 -0.002639515095851822 -0.001256994497537066 -0.0004049038198725614 
0 0 0 0 0 
0 0 0 0 0 
0 0 0 0 0 
0 0 0 0 0 
0 0 0 0 0 
0 0 0 0 0 
0 0 0 0 0 
0 0 0 0 0 
0 0 0 0 0 
0 0 0 0 0 
0 0 0 0 0 
0 0 0 0 0 
0 0 0 0 0 
0 0 0 0 0 
-0.0005064491524924404 0.03620213173173024 -0.07965780653662675 -0.1169298216280725 -0.01261746225468830 
0 0 0 0 0 
0 0 0 0 0 
0 0 0 0 0 
0 0 0 0 0 
0 0 0 0 0 
0 0 0 0 0 
-0.01614718004025412 -0.09770840892718359 -0.03500935547773063 0.1881343474125063 -0.009125076334579181 
0 0 0 0 0 
0 0 0 0 0 
0 0 0 0 0 
0 0 0 0 0 
0 0 0 0 0 
0 0 0 0 0 
0 0 0 0 0 
0 0 0 0 0 
0 0 0 0 0 
0 0 0 0 0 
0 0 0 0 0 
0 0 0 0 0 
0 0 0 0 0 
0 0 0 0 0 
0 0 0 0 0 
0 0 0 0 0 
0 0 0 0 0 
0 0 0 0 0 
0 0 0 0 0 
0 0 0 0 0 
0 0 0 0 0 
0 0 0 0 0 
0 0 0 0 0 
0 0 0 0 0 
0 0 0 0 0 
0 0 0 0 0 
0 0 0 0 0 
0 0 0 0 0 
0 0 0 0 0 
0 0 0 0 0 
0.08434764359949151 -0.1630535262253276 -0.04332547697412015 -0.03696427740905231 -0.01180067323326987 
-0.1142716895531978 0.06874635146651822 -0.2046890805314993 -0.04177237099665778 0.08483696351254360 
-0.02914058152995673 -0.006987132302343356 0.1014999290644054 -0.002398199674394446 -0.0001949269454790807 
0 0 0 0 0 
0 0 0 0 0 
-0.02502511371566674 0.1523291731068754 -0.05210526910358512 -0.03409491480836147 -0.04534522314202305 
0.01569855445692578 -0.06974429660020170 -0.06929133692133221 0.09815372279502753 -0.05782669230993352 
0 0 0 0 0 
-0.01862520369498774 -0.02541703726541111 -0.06210796896267498 0.1095964816065046 -0.03987270082903793 
0.03432375815191353 -0.04432725933479039 -0.007183367958657380 -0.01144275881147703 -0.01795399148089559 
0 0 0 0 0 
0 0 0 0 0 
0 0 0 0 0 
-6.344142647445763e-05 0.02191712186246058 -0.001925163830150516 -9.791043278583111e-06 -1.828769483246507e-05 
-6.344142647445763e-05 0.02191712186246058 -0.001925163830150516 -9.791043278583111e-06 -1.828769483246507e-05 
0 0 0 0 0 
0 0 0 0 0 
0 0 0 0 0 
0 0 0 0 0 
0 0 0 0 0 
0 0 0 0 0 
0 0 0 0 0 
0 0 0 0 0 
0 0 0 0 0 
0 0 0 0 0 
0 0 0 0 0 
0 0 0 0 0 
-0.1505770734526500 0.1610381062781739 0.02935778369964558 -0.04747591740631166 0.04037087693031630 
0 0 0 0 0 
0 0 0 0 0 
0 0 0 0 0 
0 0 0 0 0 
0 0 0 0 0 
0 0 0 0 0 
0 0 0 0 0 
0 0 0 0 0 
0 0 0 0 0 
0 0 0 0 0 
0 0 0 0 0 
-0.02477831081844390 0.07017557880177099 -0.002385474094779975 -0.0006864327841784818 -0.0005824604938736379 
-0.0001462937894867071 0.006043488319444956 0.08181488028046253 -0.001107274974793707 -0.0003813244933070702 
0 0 0 0 0 
0 0 0 0 0 
0 0 0 0 0 
-0.02477831081844390 0.07017557880177099 -0.002385474094779975 -0.0006864327841784818 -0.0005824604938736379 
0 0 0 0 0 
-0.08403934892914208 -0.03565781658494571 -0.04369949632025558 -0.04530545602261910 0.04341693196714377 
-0.04272562214061555 0.1208539563704248 -0.001857955741852044 -0.0003445200457984844 -0.001174601270042498 
0 0 0 0 0 
0 0 0 0 0 
0 0 0 0 0 
0.06239337996443378 -0.03945332173626347 -0.005261327993187484 -0.0005578383965858500 -0.002461430682722953 
0 0 0 0 0 
0 0 0 0 0 
0 0 0 0 0 
0.06239337996443378 -0.03945332173626347 -0.005261327993187484 -0.0005578383965858500 -0.002461430682722953 
0 0 0 0 0 
0 0 0 0 0 
0 0 0 0 0 
0 0 0 0 0 
0 0 0 0 0 
-0.2862925413977195 -0.05425116648482040 0.1823573474579400 0.1355565693869048 0.3165759958843130 
0 0 0 0 0 
0 0 0 0 0 
0 0 0 0 0 
-0.3065223648787099 -0.06282771148923430 0.2189596790159676 0.1500340312547136 0.3008110278252623 
-0.0009419303497800121 -0.01415302049906356 -0.001601375704245533 -0.0004897968325571076 0.04391189382378748 
0 0 0 0 0 
0 0 0 0 0 
0.1139106480873130 -0.1312798574360110 -0.03741603075278011 -0.01574625567978211 0.03565827598098926 
0 0 0 0 0 
0 0 0 0 0 
0 0 0 0 0 
-0.007885671964532751 -0.1060986885417962 -0.03348454886532332 0.06804817497387036 0.03831492890751879 
0 0 0 0 0 
0 0 0 0 0 
0 0 0 0 0 
0 0 0 0 0 
0 0 0 0 0 
0 0 0 0 0 
0 0 0 0 0 
0 0 0 0 0 
0 0 0 0 0 
0 0 0 0 0 
0 0 0 0 0 
-0.002839617218013207 0.08014078717312562 -0.08043558232867505 -0.03687305977184767 -0.01346633422738799 
-0.002839617218013207 0.08014078717312562 -0.08043558232867505 -0.03687305977184767 -0.01346633422738799 
0 0 0 0 0 
0 0 0 0 0 
0 0 0 0 0 
0 0 0 0 0 
0 0 0 0 0 
0 0 0 0 0 
0 0 0 0 0 
0 0 0 0 0 
0 0 0 0 0 
0.1980278880373157 0.3261765495841998 -0.09460774253640357 0.05454891605390245 0.08391480728654740 
0 0 0 0 0 
0 0 0 0 0 
0 0 0 0 0 
0 0 0 0 0 
0 0 0 0 0 
0 0 0 0 0 
0 0 0 0 0 
0 0 0 0 0 
0 0 0 0 0 
0 0 0 0 0 
0 0 0 0 0 
0 0 0 0 0 
0 0 0 0 0 
0 0 0 0 0 
0 0 0 0 0 
0 0 0 0 0 
0 0 0 0 0 
0 0 0 0 0 
0 0 0 0 0 
0 0 0 0 0 
0 0 0 0 0 
0 0 0 0 0 
0 0 0 0 0 
0 0 0 0 0 
0 0 0 0 0 
0 0 0 0 0 
0 0 0 0 0 
0.1492291127770352 0.1541987571077258 0.07653487392669055 0.2008106288331312 0.07646111203582899 
0 0 0 0 0 
0 0 0 0 0 
0 0 0 0 0 
0 0 0 0 0 
0 0 0 0 0 
0 0 0 0 0 
0 0 0 0 0 
0 0 0 0 0 
0 0 0 0 0 
0 0 0 0 0 
-9.711581203112438e-05 0.007428693354103916 -0.01148301155643470 -0.005759037835520290 -0.008348660414653741 
0 0 0 0 0 
0 0 0 0 0 
0 0 0 0 0 
0 0 0 0 0 
0 0 0 0 0 
0 0 0 0 0 
0 0 0 0 0 
0 0 0 0 0 
0 0 0 0 0 
0 0 0 0 0 
0.1804564331380054 -0.1056558688645525 -0.1040274215606345 -0.1121229149137774 -0.07614237977397470 
0 0 0 0 0 
0 0 0 0 0 
0 0 0 0 0 
0 0 0 0 0 
0 0 0 0 0 
0 0 0 0 0 
0 0 0 0 0 
0 0 0 0 0 
0 0 0 0 0 
-0.05496234888771365 -0.002286701516454528 0.1291617585895105 -0.0005452675962128951 -0.01027665751819734 
-0.05496234888771365 -0.002286701516454528 0.1291617585895105 -0.0005452675962128951 -0.01027665751819734 
0 0 0 0 0 
0 0 0 0 0 
0 0 0 0 0 
0 0 0 0 0 
0 0 0 0 0 
0 0 0 0 0 
0 0 0 0 0 
0 0 0 0 0 
0 0 0 0 0 
0 0 0 0 0 
0 0 0 0 0 
0 0 0 0 0 
0 0 0 0 0 
0 0 0 0 0 
0 0 0 0 0 
0 0 0 0 0 
0 0 0 0 0 
0 0 0 0 0 
0 0 0 0 0 
0 0 0 0 0 
0 0 0 0 0 
0 0 0 0 0 
0 0 0 0 0 
0 0 0 0 0 
0 0 0 0 0 
0 0 0 0 0 
0 0 0 0 0 
0 0 0 0 0 
0 0 0 0 0 
0 0 0 0 0 
0 0 0 0 0 
0.02081560983666490 -0.2613284785749731 -0.2677328585458826 -0.3883627975981407 -0.004262926641174541 
0.1072137499989413 -0.1535285181302196 -0.04666013287979871 -0.01837864778463842 -0.07106228956265447 
0 0 0 0 0 
0 0 0 0 0 
0 0 0 0 0 
0 0 0 0 0 
0 0 0 0 0 
0.02918232946751072 -0.1887051969881277 0.1167306950655163 -0.05285579952754683 -0.08584792502210983 
0 0 0 0 0 
0 0 0 0 0 
0 0 0 0 0 
0 0 0 0 0 
0 0 0 0 0 
0.01257562277357730 0.09234871515268807 -0.1636699327179790 -0.1373396293751114 0.04947322464751478 
0 0 0 0 0 
0 0 0 0 0 
0 0 0 0 0 
0 0 0 0 0 
0 0 0 0 0 
0 0 0 0 0 
0 0 0 0 0 
0 0 0 0 0 
0 0 0 0 0 
0 0 0 0 0 
0 0 0 0 0 
-0.01343224776824703 -0.0004940951215943530 -0.002500764677638337 0.08814019834605993 -0.0001684416804118458 
0 0 0 0 0 
0 0 0 0 0 
0 0 0 0 0 
0 0 0 0 0 
0 0 0 0 0 
0 0 0 0 0 
0 0 0 0 0 
0 0 0 0 0 
0 0 0 0 0 
0 0 0 0 0 
0 0 0 0 0 
0 0 0 0 0 
0 0 0 0 0 
0 0 0 0 0 
0 0 0 0 0 
0 0 0 0 0 
0 0 0 0 0 
-5.671494166624527e-05 -0.01594404453798973 -0.004097647985105203 -0.01177066304838499 0.04366618755918200 
0 0 0 0 0 
0.05753569545456406 -0.1004091348923168 -0.05863124872592387 -0.07078388932682908 -0.05531480219091862 
0 0 0 0 0 
0 0 0 0 0 
0 0 0 0 0 
0 0 0 0 0 
0 0 0 0 0 
0 0 0 0 0 
-0.004197325038406783 -0.06018200411025494 -0.02483955783421476 -0.004510874988881514 0.09242826331475850 
-0.2885805998070059 0.3124939221921738 0.09965406348793820 -0.002166269655201536 -0.0005071814039043678 
0 0 0 0 0 
0 0 0 0 0 
0 0 0 0 0 
0 0 0 0 0 
0 0 0 0 0 
0 0 0 0 0 
0 0 0 0 0 
0 0 0 0 0 
0 0 0 0 0 
0 0 0 0 0 
0 0 0 0 0 
0 0 0 0 0 
0 0 0 0 0 
0 0 0 0 0 
0 0 0 0 0 
0 0 0 0 0 
0 0 0 0 0 
0 0 0 0 0 
0.07891503794788046 -0.05673685668925511 -0.003521308602253986 -0.0006329510091522822 -0.003250921185300680 
0 0 0 0 0 
0 0 0 0 0 
-0.01573578290222999 -0.04298659817158393 -0.01937008137284454 -0.01172676838445563 0.04922253737101852 
0 0 0 0 0 
0 0 0 0 0 
-0.04646538738365734 -0.01105609516063250 -0.0001125041110808612 -0.0004708857359110896 0.08964542330230506 
0 0 0 0 0 
0 0 0 0 0 
0 0 0 0 0 
0 0 0 0 0 
0 0 0 0 0 
0 0 0 0 0 
0 0 0 0 0 
0 0 0 0 0 
0 0 0 0 0 
0 0 0 0 0 
0 0 0 0 0 
0 0 0 0 0 
-0.07256569339287354 0.1958019066577157 0.06080569515934135 -0.07956866572617306 -0.009836955403184711 
0 0 0 0 0 
0 0 0 0 0 
0.1863894065558417 -0.1193580027603309 -0.01920016164651686 -0.03145653321179419 -0.0004140764555454238 
0 0 0 0 0 
0 0 0 0 0 
0 0 0 0 0 
0 0 0 0 0 
0 0 0 0 0 
0 0 0 0 0 
0 0 0 0 0 
0 0 0 0 0 
0 0 0 0 0 
0 0 0 0 0 
0.1863894065558417 -0.1193580027603309 -0.01920016164651686 -0.03145653321179419 -0.0004140764555454238 
0 0 0 0 0 
0 0 0 0 0 
0 0 0 0 0 
0 0 0 0 0 
0.04303788093077644 0.02277490553815320 -0.05706164709820660 0.06974037052393897 0.03505999912937016 
0 0 0 0 0 
0 0 0 0 0 
0 0 0 0 0 
0 0 0 0 0 
0 0 0 0 0 
0 0 0 0 0 
0 0 0 0 0 
0 0 0 0 0 
0 0 0 0 0 
0 0 0 0 0 
0 0 0 0 0 
0 0 0 0 0 
0 0 0 0 0 
0 0 0 0 0 
0 0 0 0 0 
0 0 0 0 0 
0 0 0 0 0 
0 0 0 0 0 
0 0 0 0 0 
0 0 0 0 0 
0 0 0 0 0 
0 0 0 0 0 
0 0 0 0 0 
0 0 0 0 0 
0 0 0 0 0 
-0.1181775861218861 0.2760532787980881 -0.2741439529805761 -0.2592628645722229 -0.2105525836662187 
0 0 0 0 0 
0 0 0 0 0 
0 0 0 0 0 
0 0 0 0 0 
0 0 0 0 0 
0 0 0 0 0 
0 0 0 0 0 
0 0 0 0 0 
0 0 0 0 0 
0 0 0 0 0 
0 0 0 0 0 
0 0 0 0 0 
0 0 0 0 0 
0 0 0 0 0 
0 0 0 0 0 
0 0 0 0 0 
-0.01204355246472062 -0.02790881274285518 0.1476713747636895 -0.0006889644347535399 -0.0003067148370753136 
0.2342987848022732 -0.2562287272587752 0.1377062083233350 0.09993237369944047 -0.1128977000179474 
-0.009303425392281003 0.1075800883746524 -0.002682089687776054 -0.0006314335717110673 -0.002922953805145624 
0 0 0 0 0 
0 0 0 0 0 
0 0 0 0 0 
0 0 0 0 0 
0 0 0 0 0 
0 0 0 0 0 
0 0 0 0 0 
0 0 0 0 0 
0 0 0 0 0 
0.03021305238172007 -0.002596701879483255 -0.1192385150832156 0.01546672682215979 0.002257004665918858 
0 0 0 0 0 
0 0 0 0 0 
0 0 0 0 0 
0 0 0 0 0 
-0.06606801809871910 0.03354716407308252 0.1984973850763459 -0.06507965614777510 -0.05950189870749041 
-0.04614575677209590 -0.08348612767649027 0.07893330582261635 0.05702050319944504 0.01774734901243813 
0 0 0 0 0 
0 0 0 0 0 
0 0 0 0 0 
0 0 0 0 0 
0 0 0 0 0 
0 0 0 0 0 
0 0 0 0 0 
0 0 0 0 0 
0 0 0 0 0 
0 0 0 0 0 
-0.0008220822462640353 -0.1523646459481379 -0.02112242137550552 -0.002246478931228484 0.2552371169975187 
0 0 0 0 0 
0 0 0 0 0 
0 0 0 0 0 
0 0 0 0 0 
0 0 0 0 0 
0 0 0 0 0 
0 0 0 0 0 
0 0 0 0 0 
0.01170924816433798 -0.01031298088248919 -0.001250464592482264 -0.0002895671535959554 -0.0005199749402243137 
0 0 0 0 0 
0 0 0 0 0 
0 0 0 0 0 
0 0 0 0 0 
0 0 0 0 0 
0 0 0 0 0 
0 0 0 0 0 
0 0 0 0 0 
0 0 0 0 0 
0 0 0 0 0 
0 0 0 0 0 
0 0 0 0 0 
0 0 0 0 0 
0 0 0 0 0 
0 0 0 0 0 
0 0 0 0 0 
0 0 0 0 0 
-0.01145656020265398 0.07906983979649124 -0.006051877417325101 -1.353359362759081e-05 -0.001077045184160244 
0 0 0 0 0 
0 0 0 0 0 
0 0 0 0 0 
0 0 0 0 0 
0 0 0 0 0 
0 0 0 0 0 
0 0 0 0 0 
0 0 0 0 0 
0 0 0 0 0 
0 0 0 0 0 
0.2716033849471715 -0.1669147675615973 -0.2000677444105396 -0.07315077299887499 -0.06016241945617477 
-0.09137187912632104 0.1691253898496237 -0.2455698443102712 -0.3079956368940002 -0.3147811934714787 
0 0 0 0 0 
0 0 0 0 0 
0 0 0 0 0 
0 0 0 0 0 
0 0 0 0 0 
0 0 0 0 0 
-0.002851218681303282 -0.1016539110482174 0.08483361691355329 -0.005634700600559883 -0.002654517067650954 
0 0 0 0 0 
-0.002851218681303282 -0.1016539110482174 0.08483361691355329 -0.005634700600559883 -0.002654517067650954 
0 0 0 0 0 
0 0 0 0 0 
0 0 0 0 0 
0 0 0 0 0 
0.02485760535843641 -0.06141073990975517 0.009544358362476165 -0.2217141586195972 -0.2445235573498650 
0 0 0 0 0 
0 0 0 0 0 
0 0 0 0 0 
-0.06154070743676510 0.2252685328897763 -0.1823110134961293 -0.06569933929156693 -0.05332141933016713 
0 0 0 0 0 
0 0 0 0 0 
0 0 0 0 0 
0 0 0 0 0 
0 0 0 0 0 
0 0 0 0 0 
0 0 0 0 0 
0 0 0 0 0 
0 0 0 0 0 
-0.02302282325700231 -0.01774714631943064 -0.05341457363708618 0.01305652517404247 -0.03960333044218352 
0 0 0 0 0 
0 0 0 0 0 
0 0 0 0 0 
0 0 0 0 0 
0 0 0 0 0 
0 0 0 0 0 
0 0 0 0 0 
0 0 0 0 0 
0 0 0 0 0 
0.06846349037129183 -0.03139866905565591 -0.06426437946080715 -0.01419174982898279 -0.01407407773769365 
0 0 0 0 0 
0.2307552848718177 -0.09087924019064082 -0.1606963909662705 0.008977190482187241 -0.4194800028744303 
0 0 0 0 0 
0 0 0 0 0 
0.3039173862572056 -0.03862988544805072 0.07817768412330661 -0.07122819021480936 -0.1098683363721566 
0 0 0 0 0 
0 0 0 0 0 
0 0 0 0 0 
-0.1351184218891860 0.1720266185134122 -0.03593073059745491 -0.007099993973309865 -0.001673644610663883 
0 0 0 0 0 
0 0 0 0 0 
0 0 0 0 0 
0 0 0 0 0 
0 0 0 0 0 
0 0 0 0 0 
0.02157268266347358 -0.1383353019095525 -0.09449152956745355 0.2005514247089592 -0.2844422784094681 
0 0 0 0 0 
0 0 0 0 0 
0 0 0 0 0 
0 0 0 0 0 
0 0 0 0 0 
0 0 0 0 0 
0 0 0 0 0 
0 0 0 0 0 
0 0 0 0 0 
0 0 0 0 0 
0 0 0 0 0 
0 0 0 0 0 
0 0 0 0 0 
0.002949857366777193 -0.01139936866447570 -0.0001304382203489903 -0.0005927844292419218 -0.0009098923500547241 
0 0 0 0 0 
0 0 0 0 0 
0 0 0 0 0 
0 0 0 0 0 
0 0 0 0 0 
0 0 0 0 0 
0 0 0 0 0 
0 0 0 0 0 
0 0 0 0 0 
0 0 0 0 0 
0 0 0 0 0 
0 0 0 0 0 
0 0 0 0 0 
0.1360437590350524 -0.01400345373122559 0.1079922547722745 -0.2518717651195100 -0.07600198029543606 
0 0 0 0 0 
0 0 0 0 0 
0 0 0 0 0 
0 0 0 0 0 
0 0 0 0 0 
-0.004048012517748825 0.06068506889349992 -0.04460698771990719 -0.03620325699386818 -0.008559321290822038 
0 0 0 0 0 
0 0 0 0 0 
0 0 0 0 0 
0 0 0 0 0 
0 0 0 0 0 
0 0 0 0 0 
0 0 0 0 0 
0 0 0 0 0 
0 0 0 0 0 
0 0 0 0 0 
0 0 0 0 0 
0 0 0 0 0 
0 0 0 0 0 
0 0 0 0 0 
0 0 0 0 0 
0.1938754610890401 -0.06122405191781485 -0.09724139038126992 -0.2143801938020413 -0.06680680117369243 
0 0 0 0 0 
0 0 0 0 0 
0 0 0 0 0 
0 0 0 0 0 
0 0 0 0 0 
0 0 0 0 0 
-0.02072138578424006 -0.004422068880027677 0.1131581137511113 -3.359420532347824e-05 -5.080454058068632e-06 
0 0 0 0 0 
0 0 0 0 0 
0 0 0 0 0 
0 0 0 0 0 
0 0 0 0 0 
0 0 0 0 0 
0 0 0 0 0 
0 0 0 0 0 
0 0 0 0 0 
0 0 0 0 0 
0 0 0 0 0 
0 0 0 0 0 
0 0 0 0 0 
0 0 0 0 0 
0 0 0 0 0 
-0.06715905105929659 0.1612223022338570 -0.1836913061681295 -0.08005586160143813 -0.3657605961094672 
0 0 0 0 0 
-3.194404125866978e-05 -0.1085237778619498 -0.03685175964574333 -0.01092231687620590 -0.0006059600783588960 
0 0 0 0 0 
-0.02776814933508093 -0.2321279301047014 0.07750809278029000 0.01451233837087636 0.02666351319418397 
0 0 0 0 0 
0 0 0 0 0 
0 0 0 0 0 
0 0 0 0 0 
0.009196813249340388 -0.002982208694689341 -0.01389527215944277 -0.0004914813375051907 -0.0009366178749376061 
0 0 0 0 0 
0 0 0 0 0 
0 0 0 0 0 
0 0 0 0 0 
0 0 0 0 0 
0 0 0 0 0 
0 0 0 0 0 
0 0 0 0 0 
0 0 0 0 0 
0 0 0 0 0 
0 0 0 0 0 
0 0 0 0 0 
0 0 0 0 0 
0 0 0 0 0 
0.3864877727547315 -0.2639853933879008 -0.008523502100137985 0.01397182766170497 -0.03047380860659635 
-0.0006891281342108335 -0.004514998933672934 0.08076930641631670 -9.687798976710611e-05 -1.977885740092548e-06 
0 0 0 0 0 
0 0 0 0 0 
0 0 0 0 0 
0 0 0 0 0 
0 0 0 0 0 
0 0 0 0 0 
0 0 0 0 0 
0 0 0 0 0 
0 0 0 0 0 
0 0 0 0 0 
-0.02451727963146994 0.2429148858726181 -0.008527745224413914 -0.005243094286024819 -0.06927712446494250 
0 0 0 0 0 
0 0 0 0 0 
0 0 0 0 0 
0 0 0 0 0 
-0.1994161463099078 0.1881026226467061 -0.1190191006590257 -0.1058563652784900 -0.06436487364545031 
0 0 0 0 0 
0.02199615375069441 -0.005535857783861719 -0.002748606614078318 -0.0001080090518325822 -0.001954827899477337 
0 0 0 0 0 
0 0 0 0 0 
0 0 0 0 0 
0 0 0 0 0 
-0.2016614096583135 0.4224133296441275 -0.04406016820681197 0.3039377806286899 -0.1300130330600678 
0 0 0 0 0 
0 0 0 0 0 
-0.1308030628712061 0.1952564636917037 -0.06617732074770280 0.05583598008368591 -0.09202045074534579 
0 0 0 0 0 
0 0 0 0 0 
0 0 0 0 0 
0 0 0 0 0 
0 0 0 0 0 
0 0 0 0 0 
0 0 0 0 0 
0 0 0 0 0 
0 0 0 0 0 
0 0 0 0 0 
-0.008458599295255125 0.03892804538777381 -0.03894579104372414 -0.008205450486747432 -0.01446322703373143 
0 0 0 0 0 
-0.03829344681021262 0.1475002035762065 0.07276230353177897 0.1523048611494089 -0.005471157018139832 
0 0 0 0 0 
0 0 0 0 0 
0 0 0 0 0 
0 0 0 0 0 
0 0 0 0 0 
0 0 0 0 0 
0 0 0 0 0 
0 0 0 0 0 
0 0 0 0 0 
0 0 0 0 0 
0 0 0 0 0 
0 0 0 0 0 
0 0 0 0 0 
0 0 0 0 0 
0 0 0 0 0 
0 0 0 0 0 
0 0 0 0 0 
0 0 0 0 0 
0 0 0 0 0 
0 0 0 0 0 
0 0 0 0 0 
0 0 0 0 0 
0 0 0 0 0 
0 0 0 0 0 
-0.01433345490055394 -0.005038594511297366 -0.04799919189402389 -0.02463014577169992 0.09179765517256437 
0 0 0 0 0 
0 0 0 0 0 
0 0 0 0 0 
0 0 0 0 0 
0 0 0 0 0 
0 0 0 0 0 
0 0 0 0 0 
0 0 0 0 0 
0 0 0 0 0 
0 0 0 0 0 
0 0 0 0 0 
0 0 0 0 0 
0 0 0 0 0 
-0.2528641522263815 0.3967163375187602 -0.03846765031662178 -0.007737349060003320 -0.05800398827178464 
0 0 0 0 0 
0 0 0 0 0 
0 0 0 0 0 
0 0 0 0 0 
0 0 0 0 0 
0 0 0 0 0 
0 0 0 0 0 
0 0 0 0 0 
0 0 0 0 0 
0 0 0 0 0 
0 0 0 0 0 
0 0 0 0 0 
0 0 0 0 0 
0 0 0 0 0 
0 0 0 0 0 
0 0 0 0 0 
0 0 0 0 0 
0 0 0 0 0 
0 0 0 0 0 
0 0 0 0 0 
0 0 0 0 0 
0 0 0 0 0 
0 0 0 0 0 
0 0 0 0 0 
0 0 0 0 0 
0 0 0 0 0 
0 0 0 0 0 
0 0 0 0 0 
-0.4997824322582782 0.1829087333484350 -0.2411179555264613 -0.1936935367824348 0.3431222867887487 
-0.3956334222652733 -0.003596708244261709 -0.2551312781346641 0.05752546139107082 0.9860824737823585 
-0.02013248125189952 0.07200866337486306 -0.1888613946751803 -0.1183483626233671 -0.06974302575324373 
0 0 0 0 0 
0 0 0 0 0 
0 0 0 0 0 
0 0 0 0 0 
0 0 0 0 0 
-0.004472991188433842 0.1889950901665219 -0.1348170980892964 -0.03927068093914131 -0.001533255039748121 
-0.1864607870047936 0.5406225185088233 0.02728726547019027 -0.1110365827519830 -0.01257090394335444 
0.05805269978091976 0.4626202424757344 -0.1304802394057189 -0.07767424537852721 -0.0003215782613919650 
-0.07688164281010816 0.3539511897703562 0.09444802129867097 -0.06998407098818070 0.1986433308658951 
0 0 0 0 0 
0 0 0 0 0 
0 0 0 0 0 
0.007643841455851205 -0.005409443179741278 -0.008191164565250830 -0.002103156739489098 -0.005283329894229331 
0 0 0 0 0 
0 0 0 0 0 
0 0 0 0 0 
0 0 0 0 0 
0 0 0 0 0 
0 0 0 0 0 
0 0 0 0 0 
-0.1422786371188471 0.1075943590838166 0.03786291030032208 0.003771304340230268 -0.06672846245740865 
0 0 0 0 0 
-0.02103154733427788 0.1077758712565969 -0.0007767830262899191 -4.306267169236520e-06 -0.005614822948398467 
0 0 0 0 0 
0 0 0 0 0 
0 0 0 0 0 
0 0 0 0 0 
0 0 0 0 0 
0 0 0 0 0 
0 0 0 0 0 
0 0 0 0 0 
-0.002418413904522244 0.004105513688192383 -0.05952093665224045 0.01418040620104677 -0.04124144338333835 
0 0 0 0 0 
0 0 0 0 0 
0 0 0 0 0 
0 0 0 0 0 
0 0 0 0 0 
0 0 0 0 0 
0 0 0 0 0 
-0.1188286758800469 -0.004287025860972718 0.09816062997885240 -0.01040479559364727 -0.01987219612567187 
0 0 0 0 0 
0 0 0 0 0 
-0.09874109275585333 -0.2710280317393045 0.3897371694924613 -0.1599198787990416 -0.02739833003024018 
0 0 0 0 0 
0 0 0 0 0 
0 0 0 0 0 
0 0 0 0 0 
0 0 0 0 0 
0 0 0 0 0 
-0.003487214173768946 0.05217165293163348 -0.003485275393703215 -0.0002885417969236583 -0.0006097171645508708 
0 0 0 0 0 
-0.01204355246472062 -0.02790881274285518 0.1476713747636895 -0.0006889644347535399 -0.0003067148370753136 
0 0 0 0 0 
-0.1837254517294125 0.2533507649662019 -0.005946191455514620 -0.001836690680105634 -0.002823221792600141 
0 0 0 0 0 
0.002949857366777193 -0.01139936866447570 -0.0001304382203489903 -0.0005927844292419218 -0.0009098923500547241 
0 0 0 0 0 
-0.03062390382577038 -0.01878085405015428 0.05031547908910256 -0.0004391099239416375 -0.001775329073377628 
0 0 0 0 0 
0 0 0 0 0 
0 0 0 0 0 
0 0 0 0 0 
0 0 0 0 0 
0 0 0 0 0 
0 0 0 0 0 
0 0 0 0 0 
0 0 0 0 0 
0 0 0 0 0 
0 0 0 0 0 
0 0 0 0 0 
0 0 0 0 0 
-0.1179991889796986 0.1914835540358698 -0.05099507237337534 -0.04179984594608058 -0.03053620015355626 
0 0 0 0 0 
0 0 0 0 0 
0.05959937818260258 -0.09977784009307660 0.1308354112813597 -0.05623748834200915 -0.005851854510286637 
0 0 0 0 0 
0 0 0 0 0 
0 0 0 0 0 
0 0 0 0 0 
0 0 0 0 0 
0 0 0 0 0 
0 0 0 0 0 
0 0 0 0 0 
0 0 0 0 0 
0 0 0 0 0 
0 0 0 0 0 
0 0 0 0 0 
0 0 0 0 0 
0 0 0 0 0 
0 0 0 0 0 
0 0 0 0 0 
0 0 0 0 0 
0 0 0 0 0 
0 0 0 0 0 
0 0 0 0 0 
0 0 0 0 0 
-0.05673276784495196 -0.01420174455808062 0.1972001390815961 -0.01898711459852126 0.1843351805045457 
0 0 0 0 0 
0 0 0 0 0 
0 0 0 0 0 
0 0 0 0 0 
0 0 0 0 0 
0 0 0 0 0 
0 0 0 0 0 
0 0 0 0 0 
0 0 0 0 0 
-0.05321903702435816 -0.01054247588374495 -0.002634179020655542 -0.0005530345417891251 0.1015478987133824 
0 0 0 0 0 
0 0 0 0 0 
0 0 0 0 0 
0 0 0 0 0 
0 0 0 0 0 
0 0 0 0 0 
0 0 0 0 0 
0 0 0 0 0 
0.01555713503413641 0.009666215488140277 -0.06959665756587964 -0.03137008729258638 0.1957537539895900 
0 0 0 0 0 
0.01555713503413641 0.009666215488140277 -0.06959665756587964 -0.03137008729258638 0.1957537539895900 
0 0 0 0 0 
0 0 0 0 0 
0 0 0 0 0 
0 0 0 0 0 
0 0 0 0 0 
0 0 0 0 0 
0 0 0 0 0 
0 0 0 0 0 
0 0 0 0 0 
0 0 0 0 0 
0 0 0 0 0 
0 0 0 0 0 
0 0 0 0 0 
0 0 0 0 0 
0 0 0 0 0 
0 0 0 0 0 
0 0 0 0 0 
0 0 0 0 0 
0 0 0 0 0 
0 0 0 0 0 
0 0 0 0 0 
0 0 0 0 0 
-0.06212277030689141 -0.03309082510595221 0.08743321525036099 -0.02560492045035828 -0.05322208834999562 
0 0 0 0 0 
0 0 0 0 0 
0 0 0 0 0 
0 0 0 0 0 
0 0 0 0 0 
0 0 0 0 0 
0 0 0 0 0 
0 0 0 0 0 
0 0 0 0 0 
0 0 0 0 0 
0 0 0 0 0 
0 0 0 0 0 
0 0 0 0 0 
0 0 0 0 0 
0 0 0 0 0 
0.1341982655852475 -0.04757039967652826 -0.04036365380983655 -0.08849337701847432 -0.07115735942751517 
0 0 0 0 0 
0 0 0 0 0 
0 0 0 0 0 
0 0 0 0 0 
0 0 0 0 0 
0 0 0 0 0 
0 0 0 0 0 
0 0 0 0 0 
0 0 0 0 0 
0 0 0 0 0 
0 0 0 0 0 
0 0 0 0 0 
0 0 0 0 0 
0 0 0 0 0 
0 0 0 0 0 
0 0 0 0 0 
0 0 0 0 0 
0 0 0 0 0 
0 0 0 0 0 
0 0 0 0 0 
0 0 0 0 0 
0 0 0 0 0 
0.4037888762437142 -0.3358015025239427 -0.3235981036138467 -0.1571355314543376 -0.1322860717817405 
0 0 0 0 0 
0 0 0 0 0 
0 0 0 0 0 
0 0 0 0 0 
0 0 0 0 0 
0 0 0 0 0 
0 0 0 0 0 
0 0 0 0 0 
0 0 0 0 0 
0 0 0 0 0 
0 0 0 0 0 
0.06469136368246045 0.08461678335663092 -0.02770991804822167 -0.02591037764347292 -0.004107737264951058 
0 0 0 0 0 
0 0 0 0 0 
0 0 0 0 0 
0 0 0 0 0 
0 0 0 0 0 
0 0 0 0 0 
0 0 0 0 0 
0 0 0 0 0 
0 0 0 0 0 
0 0 0 0 0 
0 0 0 0 0 
0.1387539510953918 -0.09117052448646320 -0.05403950333894868 -0.1111582363462155 -0.05038225533452372 
0 0 0 0 0 
0 0 0 0 0 
0 0 0 0 0 
0 0 0 0 0 
0 0 0 0 0 
0 0 0 0 0 
0 0 0 0 0 
0 0 0 0 0 
0 0 0 0 0 
0 0 0 0 0 
0 0 0 0 0 
0 0 0 0 0 
0 0 0 0 0 
0 0 0 0 0 
0 0 0 0 0 
0 0 0 0 0 
0 0 0 0 0 
0 0 0 0 0 
0 0 0 0 0 
0 0 0 0 0 
-0.09645001586138457 -0.1020058265622049 0.1522222748342984 -0.05432365445593801 -0.06536207083873648 
0 0 0 0 0 
0 0 0 0 0 
0 0 0 0 0 
0 0 0 0 0 
0 0 0 0 0 
0 0 0 0 0 
0 0 0 0 0 
0 0 0 0 0 
0 0 0 0 0 
0 0 0 0 0 
0 0 0 0 0 
0 0 0 0 0 
0 0 0 0 0 
0 0 0 0 0 
0 0 0 0 0 
0 0 0 0 0 
0 0 0 0 0 
0 0 0 0 0 
0 0 0 0 0 
0 0 0 0 0 
0 0 0 0 0 
-0.09645001586138457 -0.1020058265622049 0.1522222748342984 -0.05432365445593801 -0.06536207083873648 
0 0 0 0 0 
0 0 0 0 0 
0 0 0 0 0 
0 0 0 0 0 
0 0 0 0 0 
0 0 0 0 0 
0 0 0 0 0 
0 0 0 0 0 
0 0 0 0 0 
0 0 0 0 0 
0 0 0 0 0 
0 0 0 0 0 
0 0 0 0 0 
0 0 0 0 0 
0 0 0 0 0 
0 0 0 0 0 
0 0 0 0 0 
0 0 0 0 0 
0 0 0 0 0 
0 0 0 0 0 
0 0 0 0 0 
0 0 0 0 0 
0 0 0 0 0 
0 0 0 0 0 
0 0 0 0 0 
0 0 0 0 0 
0.02347411051885923 -0.05571019739287563 -0.001354245164761360 -0.002807330073755086 -0.003876561649669191 
0 0 0 0 0 
0.02347411051885923 -0.05571019739287563 -0.001354245164761360 -0.002807330073755086 -0.003876561649669191 
0.05122860148872237 -0.01068179200610742 -0.1013077943628644 -0.02904481833469437 0.04605707262483784 
0 0 0 0 0 
0 0 0 0 0 
0 0 0 0 0 
0 0 0 0 0 
0 0 0 0 0 
0 0 0 0 0 
0 0 0 0 0 
0 0 0 0 0 
0 0 0 0 0 
0 0 0 0 0 
0 0 0 0 0 
0 0 0 0 0 
0 0 0 0 0 
-0.07406081540426392 -0.02828364072835266 -0.1412017482240783 0.08802478237654308 -0.06896432825729237 
0 0 0 0 0 
0 0 0 0 0 
0 0 0 0 0 
0 0 0 0 0 
0 0 0 0 0 
-0.07219064911830107 -0.09208794546956230 -0.06523412345352204 0.1005628376448728 -0.01406667893943629 
-0.07166376706302562 -0.01234190024108235 -0.02342859223549201 0.04351888781648392 -0.004372567137309246 
-0.2895039824091745 -0.1905473634438438 0.7028870956706181 -0.1536980691037981 -0.4289070553819033 
0 0 0 0 0 
0 0 0 0 0 
0.01212864163798292 0.01273093712399936 -0.009378871591741484 -0.03069741757223350 -0.01817774705909927 
0 0 0 0 0 
0 0 0 0 0 
0 0 0 0 0 
0 0 0 0 0 
0 0 0 0 0 
0 0 0 0 0 
0 0 0 0 0 
0.05544585327306964 0.08526180843600760 -0.05499433229467456 0.08968665348557484 -0.01324210488977973 
0 0 0 0 0 
0 0 0 0 0 
0 0 0 0 0 
0 0 0 0 0 
0 0 0 0 0 
0 0 0 0 0 
0 0 0 0 0 
0 0 0 0 0 
0 0 0 0 0 
-0.01219967482806872 0.1561182121758188 -0.0008003482198029035 0.1339252548037384 -0.0001034302276787072 
-0.01219967482806872 0.1561182121758188 -0.0008003482198029035 0.1339252548037384 -0.0001034302276787072 
0 0 0 0 0 
0 0 0 0 0 
0 0 0 0 0 
0 0 0 0 0 
0 0 0 0 0 
0 0 0 0 0 
0 0 0 0 0 
0 0 0 0 0 
0 0 0 0 0 
0 0 0 0 0 
0 0 0 0 0 
0 0 0 0 0 
0 0 0 0 0 
0 0 0 0 0 
0 0 0 0 0 
0.1273223290053674 -0.08385873806109975 -0.09806829033720575 -0.09006355170386392 0.05468602727638050 
0 0 0 0 0 
0 0 0 0 0 
0 0 0 0 0 
0 0 0 0 0 
0.1025495694866129 -0.1672625737856878 0.2967342870852500 -0.09593257595808925 -0.1109282545954424 
0 0 0 0 0 
0 0 0 0 0 
0 0 0 0 0 
0 0 0 0 0 
0 0 0 0 0 
0 0 0 0 0 
0 0 0 0 0 
0 0 0 0 0 
0 0 0 0 0 
0 0 0 0 0 
0 0 0 0 0 
0.05486595013687479 -0.1986927735257262 0.1025142773303875 -0.03934256629181263 -0.1026526757574286 
0.05780502739988656 -0.006390012883629536 -0.001546399986195413 -0.05652413205917017 -0.002164055599153141 
0 0 0 0 0 
0 0 0 0 0 
0 0 0 0 0 
-0.02584958236924632 0.04099990873231257 -0.1308223871979148 -0.1027970863232509 -0.05422095579115263 
0 0 0 0 0 
0 0 0 0 0 
0 0 0 0 0 
0 0 0 0 0 
0 0 0 0 0 
0 0 0 0 0 
0 0 0 0 0 
0 0 0 0 0 
0 0 0 0 0 
0 0 0 0 0 
0 0 0 0 0 
0 0 0 0 0 
0 0 0 0 0 
0 0 0 0 0 
0 0 0 0 0 
0 0 0 0 0 
0 0 0 0 0 
0 0 0 0 0 
0.02289178355297143 -0.01447369934281333 -0.004100456485377804 -0.002232657653286378 -0.01448293195988044 
0 0 0 0 0 
0 0 0 0 0 
0 0 0 0 0 
0 0 0 0 0 
0 0 0 0 0 
0.1574757303475186 -0.4882758771603249 -0.05805952697632158 0.1086347039793253 0.07397674858889433 
0 0 0 0 0 
0 0 0 0 0 
0 0 0 0 0 
0 0 0 0 0 
0 0 0 0 0 
0 0 0 0 0 
0 0 0 0 0 
0.08821060464037950 -0.1983663018167296 -0.04066325932366099 -0.03785978840810788 -0.007460709537711294 
-0.0005002409344553590 -0.06428564440148757 -0.04649284384569802 0.1686032017997883 -0.002104696206840028 
0 0 0 0 0 
0 0 0 0 0 
0 0 0 0 0 
0 0 0 0 0 
0 0 0 0 0 
0 0 0 0 0 
0 0 0 0 0 
0 0 0 0 0 
0 0 0 0 0 
0 0 0 0 0 
0 0 0 0 0 
0 0 0 0 0 
0.1947222058540862 -0.1253824177393818 -0.1453132280680497 -0.08681553532511299 -0.08736948959318785 
0 0 0 0 0 
0 0 0 0 0 
0 0 0 0 0 
0.1947222058540862 -0.1253824177393818 -0.1453132280680497 -0.08681553532511299 -0.08736948959318785 
0 0 0 0 0 
0 0 0 0 0 
0 0 0 0 0 
0 0 0 0 0 
0 0 0 0 0 
0 0 0 0 0 
0.07568347822477321 -0.1030589012344261 0.008286553430577080 -0.2851469489382605 0.004634840319117713 
0 0 0 0 0 
0 0 0 0 0 
-0.05029429359854079 -0.01446893485342798 0.004669954293580683 -0.02500010559357671 0.2182023442208029 
0 0 0 0 0 
-0.01644773839846042 0.04417357813429899 0.07895833034639142 -0.01515000916268429 -0.02179323707221348 
0 0 0 0 0 
0 0 0 0 0 
0 0 0 0 0 
0 0 0 0 0 
0 0 0 0 0 
0 0 0 0 0 
0 0 0 0 0 
0 0 0 0 0 
0 0 0 0 0 
0 0 0 0 0 
0 0 0 0 0 
0.1305429782900891 -0.1105047770779711 0.08801309485194225 -0.001579247617460018 -0.02223797814703946 
0 0 0 0 0 
-0.06218231808779581 0.001275709676258296 0.2166171722486208 0.1317444842854756 -0.04213828707714794 
0 0 0 0 0 
0 0 0 0 0 
0 0 0 0 0 
0 0 0 0 0 
0 0 0 0 0 
0 0 0 0 0 
0 0 0 0 0 
0 0 0 0 0 
0 0 0 0 0 
0 0 0 0 0 
0 0 0 0 0 
-0.0001847817284868479 0.04720627510119849 -0.006340344152516569 -6.802195678512595e-05 -8.223569143571631e-06 
0 0 0 0 0 
0 0 0 0 0 
0 0 0 0 0 
0 0 0 0 0 
0.01594499972924855 -0.01894567982616318 -0.001693935582749008 -0.003748623580464475 -0.005332128809772594 
0 0 0 0 0 
0 0 0 0 0 
0 0 0 0 0 
0 0 0 0 0 
0 0 0 0 0 
0 0 0 0 0 
0 0 0 0 0 
0 0 0 0 0 
0 0 0 0 0 
0 0 0 0 0 
0 0 0 0 0 
0 0 0 0 0 
0 0 0 0 0 
0 0 0 0 0 
0 0 0 0 0 
0 0 0 0 0 
0 0 0 0 0 
0 0 0 0 0 
0 0 0 0 0 
0 0 0 0 0 
0 0 0 0 0 
0 0 0 0 0 
0 0 0 0 0 
0 0 0 0 0 
0 0 0 0 0 
0 0 0 0 0 
0 0 0 0 0 
0 0 0 0 0 
0 0 0 0 0 
0 0 0 0 0 
0 0 0 0 0 
0 0 0 0 0 
0 0 0 0 0 
0 0 0 0 0 
0 0 0 0 0 
0 0 0 0 0 
0 0 0 0 0 
0 0 0 0 0 
0 0 0 0 0 
0 0 0 0 0 
0 0 0 0 0 
0 0 0 0 0 
0 0 0 0 0 
0 0 0 0 0 
0 0 0 0 0 
0 0 0 0 0 
0 0 0 0 0 
0 0 0 0 0 
0 0 0 0 0 
0 0 0 0 0 
0 0 0 0 0 
0 0 0 0 0 
0 0 0 0 0 
0 0 0 0 0 
0 0 0 0 0 
0 0 0 0 0 
0 0 0 0 0 
0 0 0 0 0 
0 0 0 0 0 
0 0 0 0 0 
0 0 0 0 0 
0 0 0 0 0 
0 0 0 0 0 
0 0 0 0 0 
0 0 0 0 0 
-0.05628790820583766 0.1444225011474964 -0.09208041775928294 0.06854782495636369 -0.01492708341884885 
0 0 0 0 0 
0 0 0 0 0 
0 0 0 0 0 
0 0 0 0 0 
0 0 0 0 0 
0 0 0 0 0 
0 0 0 0 0 
0 0 0 0 0 
0 0 0 0 0 
0 0 0 0 0 
0 0 0 0 0 
0 0 0 0 0 
0 0 0 0 0 
0 0 0 0 0 
0 0 0 0 0 
0 0 0 0 0 
0 0 0 0 0 
0 0 0 0 0 
0 0 0 0 0 
0 0 0 0 0 
0 0 0 0 0 
0 0 0 0 0 
0 0 0 0 0 
0 0 0 0 0 
0 0 0 0 0 
0 0 0 0 0 
0 0 0 0 0 
0 0 0 0 0 
0 0 0 0 0 
0 0 0 0 0 
0 0 0 0 0 
0 0 0 0 0 
0 0 0 0 0 
0 0 0 0 0 
0 0 0 0 0 
0 0 0 0 0 
0 0 0 0 0 
0.05501428753491526 0.05774155579188030 -0.01992029114436362 0.09279919381205920 -0.007638349055747508 
0 0 0 0 0 
0.08946097592735311 -0.1635513187873453 -0.007342096108951416 -0.001797776753009503 0.1128941305940242 
0 0 0 0 0 
0 0 0 0 0 
0 0 0 0 0 
0 0 0 0 0 
0 0 0 0 0 
0 0 0 0 0 
0 0 0 0 0 
0 0 0 0 0 
0 0 0 0 0 
0 0 0 0 0 
0 0 0 0 0 
0 0 0 0 0 
0 0 0 0 0 
0 0 0 0 0 
0 0 0 0 0 
0 0 0 0 0 
0 0 0 0 0 
0 0 0 0 0 
0 0 0 0 0 
0 0 0 0 0 
0 0 0 0 0 
0 0 0 0 0 
0 0 0 0 0 
0 0 0 0 0 
0 0 0 0 0 
0 0 0 0 0 
0 0 0 0 0 
0 0 0 0 0 
0 0 0 0 0 
0 0 0 0 0 
0 0 0 0 0 
0 0 0 0 0 
0 0 0 0 0 
0 0 0 0 0 
0 0 0 0 0 
0 0 0 0 0 
0 0 0 0 0 
0 0 0 0 0 
0 0 0 0 0 
0 0 0 0 0 
0 0 0 0 0 
0 0 0 0 0 
0 0 0 0 0 
0 0 0 0 0 
0 0 0 0 0 
0 0 0 0 0 
0 0 0 0 0 
0 0 0 0 0 
0 0 0 0 0 
0 0 0 0 0 
0 0 0 0 0 
0 0 0 0 0 
0 0 0 0 0 
0 0 0 0 0 
0 0 0 0 0 
0 0 0 0 0 
0 0 0 0 0 
-0.02565240401522350 0.1216953980106659 -0.004740356356558610 -2.611171542595773e-05 -4.088283923868919e-05 
0 0 0 0 0 
0 0 0 0 0 
0 0 0 0 0 
0 0 0 0 0 
0 0 0 0 0 
0 0 0 0 0 
0 0 0 0 0 
0 0 0 0 0 
0 0 0 0 0 
-0.02565240401522350 0.1216953980106659 -0.004740356356558610 -2.611171542595773e-05 -4.088283923868919e-05 
0 0 0 0 0 
0 0 0 0 0 
0 0 0 0 0 
0 0 0 0 0 
0 0 0 0 0 
0 0 0 0 0 
0 0 0 0 0 
0 0 0 0 0 
-0.04746653078902715 0.1907683445226712 -0.01536791068878420 -0.02180479047342350 -0.01546491826059698 
0 0 0 0 0 
0 0 0 0 0 
0 0 0 0 0 
0 0 0 0 0 
0 0 0 0 0 
0 0 0 0 0 
0.1387602692239558 -0.05742796872405286 -0.1779287817214296 -0.05375278518595272 -0.06137143785371014 
0 0 0 0 0 
0 0 0 0 0 
0 0 0 0 0 
0 0 0 0 0 
0 0 0 0 0 
0 0 0 0 0 
0 0 0 0 0 
0 0 0 0 0 
0 0 0 0 0 
0 0 0 0 0 
0 0 0 0 0 
0 0 0 0 0 
0 0 0 0 0 
0 0 0 0 0 
0 0 0 0 0 
0 0 0 0 0 
0 0 0 0 0 
0 0 0 0 0 
0 0 0 0 0 
0 0 0 0 0 
0 0 0 0 0 
0 0 0 0 0 
0 0 0 0 0 
0 0 0 0 0 
0 0 0 0 0 
0 0 0 0 0 
0 0 0 0 0 
0 0 0 0 0 
0 0 0 0 0 
0.04277812084818003 -0.1034446802165832 -0.008035054421584469 -0.003257514409500281 -0.005302407246491930 
0 0 0 0 0 
0 0 0 0 0 
0.01359729701965863 -0.006029927500786829 -0.008040240112868989 -0.0004599593587528980 -0.001736037037547554 
0 0 0 0 0 
0 0 0 0 0 
0 0 0 0 0 
0 0 0 0 0 
0 0 0 0 0 
0 0 0 0 0 
0 0 0 0 0 
0 0 0 0 0 
0 0 0 0 0 
0 0 0 0 0 
0 0 0 0 0 
0.5486916229372443 -0.1742207486019858 -0.05355317002742289 -0.2240924466874190 -0.1980403881888600 
0 0 0 0 0 
0 0 0 0 0 
0 0 0 0 0 
0 0 0 0 0 
0 0 0 0 0 
0 0 0 0 0 
0 0 0 0 0 
0 0 0 0 0 
0 0 0 0 0 
0 0 0 0 0 
0 0 0 0 0 
0 0 0 0 0 
0.09289241451094059 -0.09759782420057360 -0.05477218401308552 -0.05493622563759443 -0.07829683069987593 
-0.02433520233999040 0.02275652831978625 -0.007207754438566596 -0.0008602277589212636 -5.822511729323208e-06 
0 0 0 0 0 
0 0 0 0 0 
0 0 0 0 0 
0 0 0 0 0 
0 0 0 0 0 
0 0 0 0 0 
0 0 0 0 0 
0 0 0 0 0 
0 0 0 0 0 
0 0 0 0 0 
0 0 0 0 0 
0 0 0 0 0 
0 0 0 0 0 
0 0 0 0 0 
0.003172477684106886 -0.04913384912230346 0.06309732691602582 -0.004106389020947466 -0.006685020551509996 
0 0 0 0 0 
0 0 0 0 0 
0 0 0 0 0 
0 0 0 0 0 
0.3133466654913382 -0.1824651846115925 -0.1563495302544503 -0.3146766385322676 -0.08204133824566444 
0 0 0 0 0 
0 0 0 0 0 
0 0 0 0 0 
0.02608578815658196 -0.05365300834636764 -0.01522702849498596 -0.001490592510993631 -0.003002153912042419 
0 0 0 0 0 
0 0 0 0 0 
0.007415770769264110 -0.0005995159413071484 -0.001175929272974041 -0.0006326988192676465 -0.002884322654370826 
0 0 0 0 0 
0 0 0 0 0 
0 0 0 0 0 
0 0 0 0 0 
0 0 0 0 0 
0 0 0 0 0 
0 0 0 0 0 
0 0 0 0 0 
0 0 0 0 0 
0 0 0 0 0 
0 0 0 0 0 
0 0 0 0 0 
0 0 0 0 0 
0 0 0 0 0 
-0.06424200143257580 -0.05065919660214789 -0.3405876425985195 -0.3204477700882586 -0.05223741396631709 
0 0 0 0 0 
0 0 0 0 0 
0 0 0 0 0 
0 0 0 0 0 
0 0 0 0 0 
0 0 0 0 0 
0 0 0 0 0 
0 0 0 0 0 
0 0 0 0 0 
0 0 0 0 0 
0 0 0 0 0 
0 0 0 0 0 
0 0 0 0 0 
0 0 0 0 0 
0 0 0 0 0 
0 0 0 0 0 
0 0 0 0 0 
0 0 0 0 0 
0 0 0 0 0 
0 0 0 0 0 
0 0 0 0 0 
0 0 0 0 0 
0 0 0 0 0 
0 0 0 0 0 
0 0 0 0 0 
0 0 0 0 0 
0 0 0 0 0 
0 0 0 0 0 
0 0 0 0 0 
0 0 0 0 0 
0 0 0 0 0 
0 0 0 0 0 
0 0 0 0 0 
0 0 0 0 0 
0 0 0 0 0 
0 0 0 0 0 
0 0 0 0 0 
0 0 0 0 0 
-0.0001847817284868479 0.04720627510119849 -0.006340344152516569 -6.802195678512595e-05 -8.223569143571631e-06 
0 0 0 0 0 
0 0 0 0 0 
0 0 0 0 0 
0 0 0 0 0 
-0.01166132329682992 0.07070349605290135 -0.0003234707504819111 -0.004381203615406657 -0.01697383736508685 
0 0 0 0 0 
0 0 0 0 0 
0 0 0 0 0 
0 0 0 0 0 
0 0 0 0 0 
0 0 0 0 0 
0 0 0 0 0 
0 0 0 0 0 
-0.3092166378781713 0.06008668759559488 0.1643914110023049 -0.02985716638461588 -0.3597346559291467 
0 0 0 0 0 
0 0 0 0 0 
0 0 0 0 0 
0 0 0 0 0 
0 0 0 0 0 
0 0 0 0 0 
0 0 0 0 0 
0 0 0 0 0 
0 0 0 0 0 
0 0 0 0 0 
0 0 0 0 0 
0 0 0 0 0 
0 0 0 0 0 
0 0 0 0 0 
0 0 0 0 0 
-0.07120335191117808 0.1963445200748036 -0.001088149840287710 -7.670386197571438e-05 -0.0001084420948106361 
0 0 0 0 0 
0 0 0 0 0 
0 0 0 0 0 
0 0 0 0 0 
0 0 0 0 0 
0 0 0 0 0 
0 0 0 0 0 
0 0 0 0 0 
0 0 0 0 0 
0 0 0 0 0 
-0.01003288394912886 0.07325865645791560 -0.1325554395882492 -0.03962011645597105 -0.0009604001816102980 
0 0 0 0 0 
0 0 0 0 0 
0 0 0 0 0 
0 0 0 0 0 
-0.002632178317195041 -0.08253886772516028 0.08840559169891267 -0.01760087068313632 -0.02468835512136137 
0 0 0 0 0 
0 0 0 0 0 
0 0 0 0 0 
0 0 0 0 0 
0 0 0 0 0 
0 0 0 0 0 
0 0 0 0 0 
0 0 0 0 0 
0 0 0 0 0 
0 0 0 0 0 
0 0 0 0 0 
0 0 0 0 0 
0 0 0 0 0 
-0.02077343370613359 -0.05817689536292220 0.09560318481166132 -0.01823473937014880 0.01774393918366808 
0 0 0 0 0 
0 0 0 0 0 
0 0 0 0 0 
0 0 0 0 0 
0 0 0 0 0 
0 0 0 0 0 
0 0 0 0 0 
0 0 0 0 0 
0 0 0 0 0 
0 0 0 0 0 
0 0 0 0 0 
0 0 0 0 0 
0 0 0 0 0 
0 0 0 0 0 
0 0 0 0 0 
0.01942088221574329 -0.02382408127780456 -0.04138039731118906 -0.01751594268150788 0.01823815736114905 
0 0 0 0 0 
0 0 0 0 0 
0 0 0 0 0 
0 0 0 0 0 
0 0 0 0 0 
0 0 0 0 0 
0 0 0 0 0 
0 0 0 0 0 
0 0 0 0 0 
0 0 0 0 0 
0 0 0 0 0 
0 0 0 0 0 
0 0 0 0 0 
0 0 0 0 0 
0 0 0 0 0 
0 0 0 0 0 
0 0 0 0 0 
0 0 0 0 0 
0 0 0 0 0 
0 0 0 0 0 
0 0 0 0 0 
0 0 0 0 0 
0 0 0 0 0 
0 0 0 0 0 
0 0 0 0 0 
0 0 0 0 0 
0 0 0 0 0 
0 0 0 0 0 
0 0 0 0 0 
0 0 0 0 0 
0 0 0 0 0 
0 0 0 0 0 
0 0 0 0 0 
0 0 0 0 0 
0 0 0 0 0 
0 0 0 0 0 
0 0 0 0 0 
0 0 0 0 0 
0 0 0 0 0 
0 0 0 0 0 
-0.002632178317195041 -0.08253886772516028 0.08840559169891267 -0.01760087068313632 -0.02468835512136137 
0 0 0 0 0 
0 0 0 0 0 
0 0 0 0 0 
0 0 0 0 0 
0 0 0 0 0 
0 0 0 0 0 
0 0 0 0 0 
0 0 0 0 0 
0 0 0 0 0 
0 0 0 0 0 
0 0 0 0 0 
0.01111461481549345 -0.005800650972178882 -0.007727255193831746 -0.01546940229386977 -0.01227078555260698 
0 0 0 0 0 
0 0 0 0 0 
0.2059016610109218 -0.6881079742299635 0.2655858816366432 -0.4777513079152350 -0.5139854610265510 
0 0 0 0 0 
0 0 0 0 0 
0 0 0 0 0 
0 0 0 0 0 
0 0 0 0 0 
0 0 0 0 0 
0 0 0 0 0 
0 0 0 0 0 
0 0 0 0 0 
0 0 0 0 0 
0 0 0 0 0 
0 0 0 0 0 
0 0 0 0 0 
0 0 0 0 0 
0 0 0 0 0 
0 0 0 0 0 
0 0 0 0 0 
0 0 0 0 0 
0 0 0 0 0 
0 0 0 0 0 
0 0 0 0 0 
0 0 0 0 0 
0 0 0 0 0 
0 0 0 0 0 
0 0 0 0 0 
0.1335282855995023 -0.1837215733203161 -0.2543234060634647 0.07273307115776690 -0.1935243042290225 
0 0 0 0 0 
0.1955073144532263 -0.02769652206521510 -0.04668710682420322 -0.04697575570988181 -0.04034624362197296 
0 0 0 0 0 
0 0 0 0 0 
0 0 0 0 0 
0 0 0 0 0 
-0.2873658399543134 -0.1909892768948501 0.3629402342923925 -0.1093597847593335 -0.1289213820005176 
0 0 0 0 0 
0 0 0 0 0 
0 0 0 0 0 
0 0 0 0 0 
0 0 0 0 0 
0 0 0 0 0 
0 0 0 0 0 
0 0 0 0 0 
0 0 0 0 0 
0 0 0 0 0 
0 0 0 0 0 
0 0 0 0 0 
0 0 0 0 0 
0 0 0 0 0 
0 0 0 0 0 
0 0 0 0 0 
0 0 0 0 0 
0 0 0 0 0 
0 0 0 0 0 
0 0 0 0 0 
0 0 0 0 0 
0.3789530544545982 -0.1693721027045820 -0.4873567267957716 -0.4635653838492352 -0.1419037054434462 
0 0 0 0 0 
0 0 0 0 0 
0 0 0 0 0 
0 0 0 0 0 
0 0 0 0 0 
0.08339171388199558 -0.07369528154164906 -0.1412967931461370 -0.04517936686685258 -0.03711548124065101 
0 0 0 0 0 
0 0 0 0 0 
0 0 0 0 0 
-0.04258851655194738 0.07581364286548439 0.1354820325784878 -0.0003770470329046541 -9.359800562560779e-05 
0 0 0 0 0 
0 0 0 0 0 
-0.003470341348058359 -0.006527758937524608 -0.003063594699986526 -0.01735488279095053 0.03265035489815943 
0 0 0 0 0 
0 0 0 0 0 
0.01928903989645741 -0.006007944525004275 -0.04013398133618572 -0.0009910720837342146 -0.003854369000936687 
0 0 0 0 0 
0 0 0 0 0 
0 0 0 0 0 
-0.3253490705240891 0.4043740767052076 -0.001304775917869442 0.04175751211411757 0.4397216060530765 
0 0 0 0 0 
0 0 0 0 0 
0 0 0 0 0 
0 0 0 0 0 
0 0 0 0 0 
0.1217963200518457 -0.02518116889421486 -0.003931481887456800 -0.08379443065365241 -0.002656652926529532 
0 0 0 0 0 
0 0 0 0 0 
0 0 0 0 0 
0 0 0 0 0 
0 0 0 0 0 
0 0 0 0 0 
0 0 0 0 0 
0 0 0 0 0 
0 0 0 0 0 
0.01154442820962880 -0.02572758777185408 -0.01444942617484141 0.09279079300646231 -0.08872346525654183 
0 0 0 0 0 
-0.004174674001533344 0.01114604950870080 -0.01009015664485583 0.1113090363575700 -0.01791610696809789 
0 0 0 0 0 
0.02431965842908810 -0.06837484531651349 -0.008425423147964572 -0.008333280372248590 -0.002740343622686756 
0 0 0 0 0 
0 0 0 0 0 
0 0 0 0 0 
0 0 0 0 0 
0 0 0 0 0 
0 0 0 0 0 
-0.01097368391041572 0.04349091878344605 -0.01558465969733562 -0.003733108660481887 -0.06621021227327804 
-0.01097368391041572 0.04349091878344605 -0.01558465969733562 -0.003733108660481887 -0.06621021227327804 
0 0 0 0 0 
0 0 0 0 0 
0 0 0 0 0 
0.1156649558540420 -0.1010846716873404 -0.06606465112121297 -0.03598655474911781 -0.01689719436336827 
0.1156649558540420 -0.1010846716873404 -0.06606465112121297 -0.03598655474911781 -0.01689719436336827 
0 0 0 0 0 
0 0 0 0 0 
0 0 0 0 0 
0 0 0 0 0 
0 0 0 0 0 
0 0 0 0 0 
0 0 0 0 0 
0 0 0 0 0 
0 0 0 0 0 
0 0 0 0 0 
0 0 0 0 0 
0 0 0 0 0 
0 0 0 0 0 
0 0 0 0 0 
0 0 0 0 0 
0 0 0 0 0 
0.07360723429517468 -0.1514090829851366 0.2730029210936327 0.01765632416425950 0.1619517562316840 
0 0 0 0 0 
0 0 0 0 0 
0 0 0 0 0 
0 0 0 0 0 
0 0 0 0 0 
0 0 0 0 0 
0 0 0 0 0 
-0.005221951919967503 -0.02078851553924670 0.3160595464220918 0.07244330504192438 -0.0007605375466942875 
0 0 0 0 0 
0 0 0 0 0 
0 0 0 0 0 
0 0 0 0 0 
0 0 0 0 0 
0 0 0 0 0 
0 0 0 0 0 
0 0 0 0 0 
0 0 0 0 0 
0.005859558851047865 -0.005455826803298804 -0.005175108961119492 -0.0001557428539231517 -0.001755337894864154 
0 0 0 0 0 
-0.04039153302293842 0.05184921956966614 -0.01834380715178801 0.09485359724975377 -0.006209101732603836 
0 0 0 0 0 
0 0 0 0 0 
0 0 0 0 0 
0 0 0 0 0 
0 0 0 0 0 
0 0 0 0 0 
0 0 0 0 0 
0 0 0 0 0 
0 0 0 0 0 
0 0 0 0 0 
0 0 0 0 0 
0 0 0 0 0 
0 0 0 0 0 
0 0 0 0 0 
0 0 0 0 0 
0 0 0 0 0 
0 0 0 0 0 
0 0 0 0 0 
0 0 0 0 0 
0 0 0 0 0 
0 0 0 0 0 
0 0 0 0 0 
0.007387826368225478 -0.008971496706452059 -0.001901529847856071 -0.0002317687572732441 -0.0001186175797481392 
0.01394720512544296 -0.04151029725800175 -0.001589161859740236 -0.0003611329771232640 -0.001246366891407800 
0 0 0 0 0 
0 0 0 0 0 
0 0 0 0 0 
-0.01201103631537243 -0.05784745917468219 0.1925291814980615 -0.09488422674191825 0.02591827940061153 
0 0 0 0 0 
-0.02734286551686220 -0.04429726797315928 0.2066837368730723 -0.09229622867667563 0.02731443309197559 
0 0 0 0 0 
0 0 0 0 0 
0 0 0 0 0 
0.03452815031251334 -0.3919605969049462 -0.04945282116069995 -0.1846577882535142 -0.04852658437503118 
0 0 0 0 0 
0 0 0 0 0 
0 0 0 0 0 
0 0 0 0 0 
0 0 0 0 0 
0 0 0 0 0 
0 0 0 0 0 
0 0 0 0 0 
0 0 0 0 0 
0 0 0 0 0 
0 0 0 0 0 
0 0 0 0 0 
0 0 0 0 0 
0 0 0 0 0 
-0.003750306372306847 0.1378963186856622 -0.3051917736457224 -0.1988395037899806 -0.09692153075639134 
0 0 0 0 0 
0 0 0 0 0 
-0.09494338146245851 -0.1171793835036224 0.1017645468880408 0.2352426753597472 -0.001430480441027537 
0 0 0 0 0 
0 0 0 0 0 
-0.1920582774654503 -0.1704746237068829 0.2268735255363980 -0.01761077770748464 -0.005116181213294490 
0 0 0 0 0 
0 0 0 0 0 
0 0 0 0 0 
0 0 0 0 0 
0.01871965998083384 -0.06292897467541657 -0.002074276758812806 -0.0008537851894191061 -0.001095760626530810 
0 0 0 0 0 
0 0 0 0 0 
0 0 0 0 0 
0 0 0 0 0 
0 0 0 0 0 
-0.6159048501983758 -1.330587667143124 -1.032466635278192 -0.4945711989145686 2.034459559047734 
0 0 0 0 0 
0 0 0 0 0 
0 0 0 0 0 
0 0 0 0 0 
0 0 0 0 0 
0 0 0 0 0 
0 0 0 0 0 
0 0 0 0 0 
-0.008194547710230680 0.1002725361920445 0.08176034271227423 0.07141050294558840 -0.003351593814359895 
0 0 0 0 0 
0 0 0 0 0 
0 0 0 0 0 
0 0 0 0 0 
0 0 0 0 0 
0 0 0 0 0 
0 0 0 0 0 
0 0 0 0 0 
0 0 0 0 0 
0 0 0 0 0 
0 0 0 0 0 
0 0 0 0 0 
0 0 0 0 0 
0 0 0 0 0 
0 0 0 0 0 
0 0 0 0 0 
0 0 0 0 0 
0 0 0 0 0 
0 0 0 0 0 
0 0 0 0 0 
0 0 0 0 0 
0 0 0 0 0 
0 0 0 0 0 
0 0 0 0 0 
0 0 0 0 0 
0 0 0 0 0 
0 0 0 0 0 
0 0 0 0 0 
0 0 0 0 0 
0 0 0 0 0 
0 0 0 0 0 
0 0 0 0 0 
0 0 0 0 0 
0 0 0 0 0 
0 0 0 0 0 
0 0 0 0 0 
0 0 0 0 0 
0 0 0 0 0 
0 0 0 0 0 
0 0 0 0 0 
0 0 0 0 0 
0 0 0 0 0 
0 0 0 0 0 
0 0 0 0 0 
0 0 0 0 0 
0 0 0 0 0 
0 0 0 0 0 
0 0 0 0 0 
0 0 0 0 0 
0 0 0 0 0 
0 0 0 0 0 
0 0 0 0 0 
0 0 0 0 0 
0 0 0 0 0 
0.3684721242361799 -0.3482207814901523 -0.4480327279736928 -0.3478859608834454 -0.6339264040354844 
0.1577478758161088 -0.1128829139633790 -0.03699417821268798 -0.005181696644896615 -0.01437979511158610 
0 0 0 0 0 
0 0 0 0 0 
0 0 0 0 0 
-0.02477831081844390 0.07017557880177099 -0.002385474094779975 -0.0006864327841784818 -0.0005824604938736379 
0 0 0 0 0 
0.05780502739988656 -0.006390012883629536 -0.001546399986195413 -0.05652413205917017 -0.002164055599153141 
0 0 0 0 0 
0 0 0 0 0 
0 0 0 0 0 
0 0 0 0 0 
-0.008248450354109232 0.1104343043582279 -0.04201127610361059 -0.005216921366424937 0.04251673482787795 
0 0 0 0 0 
0 0 0 0 0 
0 0 0 0 0 
0 0 0 0 0 
0 0 0 0 0 
0 0 0 0 0 
0 0 0 0 0 
0 0 0 0 0 
0 0 0 0 0 
0 0 0 0 0 
0 0 0 0 0 
0 0 0 0 0 
0 0 0 0 0 
0 0 0 0 0 
0 0 0 0 0 
0 0 0 0 0 
0 0 0 0 0 
0 0 0 0 0 
-0.001484975115890461 0.02485560147078653 0.05200720378114671 -0.0005240097167585264 -0.0002955979843969688 
0 0 0 0 0 
0.1863894065558417 -0.1193580027603309 -0.01920016164651686 -0.03145653321179419 -0.0004140764555454238 
0 0 0 0 0 
0 0 0 0 0 
-0.02550393371311243 -0.02080812890818433 0.09220242978507576 0.1093346564360830 -0.003097603527234744 
-0.02535149029458801 -0.01225802446362927 -0.01036367120817195 0.1110548159615697 -0.002638227145627485 
0 0 0 0 0 
0 0 0 0 0 
0 0 0 0 0 
0 0 0 0 0 
0 0 0 0 0 
0 0 0 0 0 
-0.008903124433539536 -0.1206945230033838 -0.1278206857275783 0.002815386974935697 -0.04535074001080873 
0 0 0 0 0 
0 0 0 0 0 
0 0 0 0 0 
0 0 0 0 0 
0 0 0 0 0 
0 0 0 0 0 
0 0 0 0 0 
0 0 0 0 0 
-0.05983696313702439 0.2958874683166604 -0.1326462481227825 -0.09855861871240633 -0.05766934336693077 
0 0 0 0 0 
0 0 0 0 0 
0 0 0 0 0 
0 0 0 0 0 
0 0 0 0 0 
0 0 0 0 0 
0 0 0 0 0 
0 0 0 0 0 
-0.0009419303497800121 -0.01415302049906356 -0.001601375704245533 -0.0004897968325571076 0.04391189382378748 
0 0 0 0 0 
0 0 0 0 0 
0 0 0 0 0 
0 0 0 0 0 
0 0 0 0 0 
0 0 0 0 0 
0 0 0 0 0 
0 0 0 0 0 
0 0 0 0 0 
0 0 0 0 0 
0 0 0 0 0 
0 0 0 0 0 
0.001375822835048398 -0.0007163715177824545 -0.001061495570848235 -0.0003642319671610086 -0.0002005643293595152 
0 0 0 0 0 
0 0 0 0 0 
0 0 0 0 0 
0 0 0 0 0 
0 0 0 0 0 
0 0 0 0 0 
0 0 0 0 0 
0 0 0 0 0 
-0.07576541311667062 0.2383311763925539 -0.02845394244590685 -0.01758091304862702 -0.007728954889268193 
0 0 0 0 0 
-0.01084744438097655 -0.07319116617380797 0.1825911647110146 -0.003807084415551324 -0.006582418192940962 
0 0 0 0 0 
0 0 0 0 0 
0 0 0 0 0 
0 0 0 0 0 
0 0 0 0 0 
0 0 0 0 0 
-0.3956424528822815 -0.009516847954350606 0.6869768449457809 0.2950460992581275 0.1176895331607521 
0 0 0 0 0 
0 0 0 0 0 
0 0 0 0 0 
0 0 0 0 0 
0 0 0 0 0 
-0.2604540934691667 0.1321196925229196 0.06866009705258129 -0.006700266842509673 -0.008565859214531905 
0 0 0 0 0 
0 0 0 0 0 
0 0 0 0 0 
0 0 0 0 0 
0 0 0 0 0 
0 0 0 0 0 
-0.03019992258314558 -0.1258591064532956 0.08212448867333186 -0.005964143540680668 0.2681224790173092 
0 0 0 0 0 
0 0 0 0 0 
0 0 0 0 0 
0 0 0 0 0 
0 0 0 0 0 
0 0 0 0 0 
0 0 0 0 0 
0 0 0 0 0 
0 0 0 0 0 
0 0 0 0 0 
0 0 0 0 0 
0.06483356810574073 -0.07566138120032448 0.1089437429222332 -0.02200906000776905 -0.008164911495602450 
0 0 0 0 0 
0 0 0 0 0 
0 0 0 0 0 
0 0 0 0 0 
0 0 0 0 0 
0.01599358582487397 -0.003628841647925993 -0.01831128364398405 -0.05389027874922930 -0.003468883412838913 
0 0 0 0 0 
-0.3372381845137686 0.1996974517248453 0.03602526050546955 0.1494937121173962 0.2275674841239544 
0 0 0 0 0 
0 0 0 0 0 
0 0 0 0 0 
0 0 0 0 0 
0 0 0 0 0 
0 0 0 0 0 
0 0 0 0 0 
0 0 0 0 0 
0 0 0 0 0 
-0.01970624914230764 -0.01892398023343581 -0.01345782334200930 0.007972390439484911 -0.02768217171776714 
0 0 0 0 0 
0 0 0 0 0 
0 0 0 0 0 
0.1900259396216771 -0.1414077486191398 -0.09101598521320539 -0.06176308369034287 -0.05497936292703026 
0 0 0 0 0 
0 0 0 0 0 
0 0 0 0 0 
0 0 0 0 0 
0 0 0 0 0 
0 0 0 0 0 
0 0 0 0 0 
0 0 0 0 0 
0 0 0 0 0 
0 0 0 0 0 
0 0 0 0 0 
0 0 0 0 0 
0 0 0 0 0 
0 0 0 0 0 
0 0 0 0 0 
0 0 0 0 0 
0 0 0 0 0 
0 0 0 0 0 
0 0 0 0 0 
0 0 0 0 0 
0.005800159140644723 -0.007100168186257892 -0.002209685235510683 -0.002677603342609992 -0.004418422700978344 
0 0 0 0 0 
0.01924785395311515 -0.04204054425226202 -0.0009016676321426519 -7.683220372630686e-05 -4.788127945943601e-05 
0 0 0 0 0 
0 0 0 0 0 
0 0 0 0 0 
0 0 0 0 0 
0 0 0 0 0 
0 0 0 0 0 
-0.09845545790108020 0.1332319011893595 -0.1031255713145152 -0.03027974376190582 -0.08321228821656503 
0 0 0 0 0 
0 0 0 0 0 
0 0 0 0 0 
0 0 0 0 0 
0 0 0 0 0 
0.1263812853335513 0.03971299712552110 0.07253557250022180 -0.05548387135726755 -0.005906669121582324 
0 0 0 0 0 
0 0 0 0 0 
0 0 0 0 0 
0 0 0 0 0 
0 0 0 0 0 
0 0 0 0 0 
0 0 0 0 0 
0 0 0 0 0 
0 0 0 0 0 
0 0 0 0 0 
0 0 0 0 0 
0 0 0 0 0 
0 0 0 0 0 
0 0 0 0 0 
0 0 0 0 0 
0 0 0 0 0 
0 0 0 0 0 
0 0 0 0 0 
0 0 0 0 0 
0 0 0 0 0 
0 0 0 0 0 
0 0 0 0 0 
0.3140056564125405 -0.3209546776879283 -0.2822662123434114 -0.2408918502785360 -0.3150043067305490 
0 0 0 0 0 
0 0 0 0 0 
0 0 0 0 0 
0 0 0 0 0 
0 0 0 0 0 
0 0 0 0 0 
0 0 0 0 0 
0 0 0 0 0 
-0.0006290612409846360 -0.02424516489551236 0.02272942841078390 0.07171807289799081 -7.361401303141663e-05 
0 0 0 0 0 
0 0 0 0 0 
0 0 0 0 0 
0 0 0 0 0 
0 0 0 0 0 
0.1037763228993553 -0.06162397806262082 -0.04693913441339871 -0.008692560565448613 -0.01556960304088759 
0 0 0 0 0 
0.03342303567540793 -0.02945345616531685 -0.02765605693576691 -0.01117026341540822 -0.006880855109977076 
0 0 0 0 0 
0 0 0 0 0 
0.2492786933948569 -0.09984607476766050 -0.2762238413949436 -0.01724844819601042 -0.09810224460225513 
0 0 0 0 0 
-0.002289256603929555 -0.05670311474049864 -0.05843082625801239 0.1099569249521417 -0.03974475381702083 
0 0 0 0 0 
0 0 0 0 0 
0 0 0 0 0 
-0.01957348019620975 -0.04474643035030994 -0.02828666516936193 0.1777170565998601 -0.01985296191674472 
0 0 0 0 0 
0 0 0 0 0 
0 0 0 0 0 
0 0 0 0 0 
0 0 0 0 0 
0 0 0 0 0 
0 0 0 0 0 
0 0 0 0 0 
0 0 0 0 0 
0 0 0 0 0 
0 0 0 0 0 
0.05265339682495124 -0.09771559776322700 -0.03471388095094501 -0.01143971236895753 -0.01027036837114002 
0 0 0 0 0 
0 0 0 0 0 
0 0 0 0 0 
-0.01214602236916282 -0.04487248398280025 0.2214400592221682 0.2700801167097052 -1.310450264928686e-08 
0 0 0 0 0 
0 0 0 0 0 
0 0 0 0 0 
0 0 0 0 0 
0 0 0 0 0 
0 0 0 0 0 
0 0 0 0 0 
0 0 0 0 0 
0 0 0 0 0 
0 0 0 0 0 
0 0 0 0 0 
0 0 0 0 0 
0 0 0 0 0 
-0.1515231279958144 -0.3612639745032216 0.5639879084140709 0.01377612912047453 -0.08127068950588855 
0 0 0 0 0 
0 0 0 0 0 
0 0 0 0 0 
0 0 0 0 0 
0 0 0 0 0 
0 0 0 0 0 
0 0 0 0 0 
0 0 0 0 0 
0 0 0 0 0 
0 0 0 0 0 
0 0 0 0 0 
0 0 0 0 0 
0 0 0 0 0 
0 0 0 0 0 
0 0 0 0 0 
0 0 0 0 0 
0 0 0 0 0 
-0.001704740534140642 0.01953125555470592 -0.01184714661856167 -0.01373591609655086 -0.006875820035284548 
0 0 0 0 0 
0 0 0 0 0 
0 0 0 0 0 
0 0 0 0 0 
0 0 0 0 0 
0 0 0 0 0 
0 0 0 0 0 
0.002526641095228377 -0.03984782003954404 -0.01172271711867945 -0.01940713064990853 0.2331693667931973 
0 0 0 0 0 
0 0 0 0 0 
0 0 0 0 0 
0 0 0 0 0 
0 0 0 0 0 
0 0 0 0 0 
0 0 0 0 0 
0 0 0 0 0 
0 0 0 0 0 
0.1550849747115681 -0.1456741883805211 -0.05301150893460904 -0.05719896463008533 -0.02847102004682468 
0 0 0 0 0 
0 0 0 0 0 
0.07865456131421344 -0.08264747710848434 -0.04566282272241234 -0.03764519611247157 -0.01377681240748089 
0 0 0 0 0 
0 0 0 0 0 
0 0 0 0 0 
0 0 0 0 0 
0 0 0 0 0 
0 0 0 0 0 
-0.02477831081844390 0.07017557880177099 -0.002385474094779975 -0.0006864327841784818 -0.0005824604938736379 
0 0 0 0 0 
0 0 0 0 0 
0 0 0 0 0 
0 0 0 0 0 
0 0 0 0 0 
0 0 0 0 0 
0 0 0 0 0 
0 0 0 0 0 
0 0 0 0 0 
0 0 0 0 0 
0 0 0 0 0 
0 0 0 0 0 
0.07751149264605911 -0.1196714050132302 -0.007534888715722887 -0.07011617961247321 -0.05550130622031848 
0.07925268036214217 -0.1076575653659760 -0.1091047704228030 -0.05242536077932025 -0.05528645168099471 
0 0 0 0 0 
0 0 0 0 0 
0 0 0 0 0 
0 0 0 0 0 
-0.01856959136437704 0.1755738224244395 -0.01230347426222282 -0.02355430959035475 -0.008922651722285190 
0.03130071976212958 -0.008970194096171920 -0.009230268328171228 -0.0003087613514329122 -0.002887729873339242 
0 0 0 0 0 
0 0 0 0 0 
0 0 0 0 0 
0 0 0 0 0 
0 0 0 0 0 
0 0 0 0 0 
0 0 0 0 0 
0 0 0 0 0 
0 0 0 0 0 
0 0 0 0 0 
0 0 0 0 0 
0 0 0 0 0 
0 0 0 0 0 
0 0 0 0 0 
-0.6972121429683262 0.4941645737284234 0.1172081599962423 0.04708571377357101 -0.2671402103364848 
0 0 0 0 0 
0 0 0 0 0 
0 0 0 0 0 
0 0 0 0 0 
0 0 0 0 0 
0 0 0 0 0 
0 0 0 0 0 
0 0 0 0 0 
0 0 0 0 0 
0 0 0 0 0 
0 0 0 0 0 
0 0 0 0 0 
0 0 0 0 0 
0 0 0 0 0 
0 0 0 0 0 
0 0 0 0 0 
0 0 0 0 0 
0 0 0 0 0 
0 0 0 0 0 
0 0 0 0 0 
0 0 0 0 0 
0 0 0 0 0 
0 0 0 0 0 
0 0 0 0 0 
0 0 0 0 0 
0 0 0 0 0 
0 0 0 0 0 
0 0 0 0 0 
0.01711982892391126 -0.03216477446865515 -0.005093047735572408 -0.002131688150729596 -0.001120166811577009 
0.09967520304687530 -0.09259837118545727 -0.04946244404865083 -0.1784286267718117 -0.3436446984546942 
0.02066011983577815 -0.02043727847094253 -0.02135714208665529 -0.007477637917853716 -0.002413837693229118 
0 0 0 0 0 
0 0 0 0 0 
-0.006461731939953983 -0.06385868693557777 0.1107777364440441 0.02702011510746789 -0.03914406272136898 
0 0 0 0 0 
0 0 0 0 0 
0 0 0 0 0 
0 0 0 0 0 
0 0 0 0 0 
0 0 0 0 0 
0.07775109603001740 -0.1817868524172232 -0.02297148946376457 -0.04739239876824865 -0.01380718080473282 
0 0 0 0 0 
-0.009329452290679751 0.04469287477072478 -0.03591985760362301 -0.009204831174084537 -0.01212694431232029 
0 0 0 0 0 
0 0 0 0 0 
0 0 0 0 0 
0 0 0 0 0 
-0.05455946362668015 0.06403164284115784 -0.06822721106667860 -0.006509954799825041 -0.0003731804803987753 
0 0 0 0 0 
0 0 0 0 0 
0 0 0 0 0 
0 0 0 0 0 
0 0 0 0 0 
-0.2289169101104899 0.2153146010681440 0.04458285904291883 0.2755734249886566 0.3537969157064021 
0 0 0 0 0 
0.1409078036758706 -0.1360858990088444 -0.1236058128749052 -0.08141794230245673 -0.05600157949649077 
-0.4603189484225916 0.3392696636784889 0.1442937396795898 0.1142224764375247 0.1006944402910164 
0.07687002012683808 0.05078924211478119 0.2228273144696576 0.01048755819837589 0.02919594510153630 
5.911197058894486e-05 -3.219537274386194e-06 -8.015897842293699e-05 -0.0002163161339854610 -5.304749142623890e-07 
0 0 0 0 0 
0 0 0 0 0 
0 0 0 0 0 
-0.04647466292675627 0.2048681306092722 -0.09046833870679990 -0.05136759809349474 -0.05802433843420352 
0 0 0 0 0 
0.06470023601344978 -0.01730033046592381 -0.02955239660463099 -0.03528049008847847 -0.01084053475509664 
0 0 0 0 0 
0 0 0 0 0 
0 0 0 0 0 
0 0 0 0 0 
0 0 0 0 0 
0 0 0 0 0 
-1.919428664830534e-06 0.002531618634398240 -0.07121129585938929 -0.02535887030360019 -0.006514993601767050 
0 0 0 0 0 
0 0 0 0 0 
0 0 0 0 0 
0 0 0 0 0 
0 0 0 0 0 
0 0 0 0 0 
0 0 0 0 0 
0 0 0 0 0 
0 0 0 0 0 
-0.006190519295986198 0.05094108152647340 -0.002343454625297161 -0.002034683750432822 -7.019854349038703e-05 
-0.006190519295986198 0.05094108152647340 -0.002343454625297161 -0.002034683750432822 -7.019854349038703e-05 
0 0 0 0 0 
0 0 0 0 0 
0 0 0 0 0 
0 0 0 0 0 
0 0 0 0 0 
0 0 0 0 0 
0 0 0 0 0 
0 0 0 0 0 
0.3789161038715476 -0.3286733556191583 -0.1732166582467150 -0.1262270711049097 -0.1350328449307174 
0 0 0 0 0 
0 0 0 0 0 
0 0 0 0 0 
0 0 0 0 0 
0 0 0 0 0 
0 0 0 0 0 
0 0 0 0 0 
0 0 0 0 0 
0 0 0 0 0 
0 0 0 0 0 
0.1693524550913173 -0.2639487312705824 -0.04223015945390077 -0.03465652900327085 -0.05929628595122254 
0 0 0 0 0 
0 0 0 0 0 
0 0 0 0 0 
0 0 0 0 0 
0 0 0 0 0 
0.1576033378977943 -0.07222801378934728 -0.1006834249747504 -0.03425796931314979 -0.06088645836658146 
0 0 0 0 0 
0 0 0 0 0 
-0.06288060624146109 0.1798955568825823 -0.2537959154854215 -0.07983758875168744 0.2879165049618230 
0 0 0 0 0 
0 0 0 0 0 
0 0 0 0 0 
0 0 0 0 0 
0 0 0 0 0 
0 0 0 0 0 
0 0 0 0 0 
0 0 0 0 0 
0 0 0 0 0 
-0.01955385794742486 -0.04841998000357912 -0.006763604533238940 -0.01423004141606532 0.1100067918776069 
0 0 0 0 0 
0 0 0 0 0 
0 0 0 0 0 
0 0 0 0 0 
0 0 0 0 0 
0 0 0 0 0 
0 0 0 0 0 
0 0 0 0 0 
0 0 0 0 0 
0 0 0 0 0 
0 0 0 0 0 
0.006112177934391515 0.08842907342171608 0.2854595924343127 0.06928939818782860 0.05705584882918698 
0 0 0 0 0 
0 0 0 0 0 
0.02730732816056296 0.01182302516929553 0.2938259131701606 0.07520572909635038 0.05614855821587270 
0 0 0 0 0 
0 0 0 0 0 
0 0 0 0 0 
0 0 0 0 0 
0 0 0 0 0 
0 0 0 0 0 
0 0 0 0 0 
0 0 0 0 0 
0 0 0 0 0 
0 0 0 0 0 
0 0 0 0 0 
0 0 0 0 0 
0 0 0 0 0 
0 0 0 0 0 
0 0 0 0 0 
0 0 0 0 0 
0 0 0 0 0 
0 0 0 0 0 
0 0 0 0 0 
0 0 0 0 0 
-0.02103154733427788 0.1077758712565969 -0.0007767830262899191 -4.306267169236520e-06 -0.005614822948398467 
0 0 0 0 0 
0 0 0 0 0 
0 0 0 0 0 
-0.0001636028918935996 -0.03116982300417644 -0.007589537709558082 -0.005912024641352485 0.006522113561712724 
0 0 0 0 0 
0 0 0 0 0 
0 0 0 0 0 
0 0 0 0 0 
0 0 0 0 0 
0 0 0 0 0 
0 0 0 0 0 
0 0 0 0 0 
0.08613249163677666 0.1884358493745174 0.06515655938855691 -0.04067665047234265 -0.1976493981038870 
0 0 0 0 0 
0 0 0 0 0 
0 0 0 0 0 
0 0 0 0 0 
0 0 0 0 0 
0 0 0 0 0 
0 0 0 0 0 
0 0 0 0 0 
0 0 0 0 0 
0 0 0 0 0 
0 0 0 0 0 
0 0 0 0 0 
0 0 0 0 0 
0 0 0 0 0 
0 0 0 0 0 
0 0 0 0 0 
0 0 0 0 0 
0 0 0 0 0 
0 0 0 0 0 
-0.06327593760239390 0.1732903045538424 0.1314500449276831 0.01928396498946319 -0.04646359353347874 
0 0 0 0 0 
0 0 0 0 0 
0 0 0 0 0 
0 0 0 0 0 
0 0 0 0 0 
0 0 0 0 0 
0 0 0 0 0 
0 0 0 0 0 
0 0 0 0 0 
0 0 0 0 0 
0 0 0 0 0 
0 0 0 0 0 
0 0 0 0 0 
0 0 0 0 0 
0 0 0 0 0 
0 0 0 0 0 
0 0 0 0 0 
0 0 0 0 0 
0 0 0 0 0 
0 0 0 0 0 
0 0 0 0 0 
0 0 0 0 0 
0 0 0 0 0 
0 0 0 0 0 
0 0 0 0 0 
0 0 0 0 0 
0 0 0 0 0 
0 0 0 0 0 
0 0 0 0 0 
0 0 0 0 0 
0 0 0 0 0 
0 0 0 0 0 
0 0 0 0 0 
0 0 0 0 0 
0 0 0 0 0 
0 0 0 0 0 
0 0 0 0 0 
0 0 0 0 0 
0 0 0 0 0 
0 0 0 0 0 
0 0 0 0 0 
0 0 0 0 0 
0 0 0 0 0 
0 0 0 0 0 
0 0 0 0 0 
0 0 0 0 0 
0 0 0 0 0 
0 0 0 0 0 
0 0 0 0 0 
0 0 0 0 0 
0 0 0 0 0 
0 0 0 0 0 
0 0 0 0 0 
0 0 0 0 0 
0 0 0 0 0 
0 0 0 0 0 
0 0 0 0 0 
0 0 0 0 0 
0 0 0 0 0 
0 0 0 0 0 
0 0 0 0 0 
0 0 0 0 0 
0 0 0 0 0 
0 0 0 0 0 
0 0 0 0 0 
0 0 0 0 0 
0 0 0 0 0 
0 0 0 0 0 
0 0 0 0 0 
0 0 0 0 0 
0 0 0 0 0 
0 0 0 0 0 
0 0 0 0 0 
0 0 0 0 0 
0 0 0 0 0 
0 0 0 0 0 
0 0 0 0 0 
0 0 0 0 0 
0 0 0 0 0 
0 0 0 0 0 
0 0 0 0 0 
0 0 0 0 0 
0 0 0 0 0 
0 0 0 0 0 
0 0 0 0 0 
0 0 0 0 0 
0 0 0 0 0 
0 0 0 0 0 
0 0 0 0 0 
0 0 0 0 0 
0 0 0 0 0 
0 0 0 0 0 
0 0 0 0 0 
-0.03774080057649966 -0.0009966702998014960 0.03732703114949326 -0.005536466781818001 0.2280872688086424 
0 0 0 0 0 
0 0 0 0 0 
0 0 0 0 0 
0 0 0 0 0 
0 0 0 0 0 
0 0 0 0 0 
0 0 0 0 0 
0 0 0 0 0 
0 0 0 0 0 
0 0 0 0 0 
0 0 0 0 0 
0 0 0 0 0 
0 0 0 0 0 
0 0 0 0 0 
0.1183221261909316 -0.1997609718617353 0.2128930998346397 0.01906492245150840 -0.05228309455494597 
0 0 0 0 0 
0 0 0 0 0 
0 0 0 0 0 
0 0 0 0 0 
0 0 0 0 0 
0 0 0 0 0 
0.09274841427309430 -0.04206140510968874 -0.06115476443817439 -0.02435379039687170 -0.01993876953324150 
0 0 0 0 0 
-0.05603718643794273 -0.1246375400549446 0.3339339445172543 -0.02253564767440395 -0.009978090777115926 
0 0 0 0 0 
0 0 0 0 0 
0 0 0 0 0 
0 0 0 0 0 
0 0 0 0 0 
0 0 0 0 0 
0 0 0 0 0 
0 0 0 0 0 
0.03669411363201262 -0.04452085304907411 -0.01220933279392945 -0.01159466406577991 -0.01904083796690153 
0.002370355480099088 -0.0001935937142837080 -0.005025964835272073 -0.0001519052543028721 -0.001086846486005956 
0.03432375815191353 -0.04432725933479039 -0.007183367958657380 -0.01144275881147703 -0.01795399148089559 
0 0 0 0 0 
0 0 0 0 0 
0 0 0 0 0 
0 0 0 0 0 
0 0 0 0 0 
0 0 0 0 0 
0 0 0 0 0 
0 0 0 0 0 
0 0 0 0 0 
0 0 0 0 0 
0 0 0 0 0 
-0.0008803253036998607 0.01713952293578076 -0.03511805620676019 -0.05232043665719817 -0.009661565545889065 
0 0 0 0 0 
0.02533985833627011 -0.01923012596774923 -0.02372970133750793 -0.01145334477736416 -0.03132553277303786 
0 0 0 0 0 
0.02533985833627011 -0.01923012596774923 -0.02372970133750793 -0.01145334477736416 -0.03132553277303786 
0.02045725169119712 0.01354942938394117 0.01117101009375722 0.1413228060231260 0.03766170204123995 
0 0 0 0 0 
0 0 0 0 0 
0 0 0 0 0 
0 0 0 0 0 
0 0 0 0 0 
0 0 0 0 0 
0 0 0 0 0 
0 0 0 0 0 
0 0 0 0 0 
0 0 0 0 0 
0 0 0 0 0 
0 0 0 0 0 
0 0 0 0 0 
0 0 0 0 0 
0 0 0 0 0 
0 0 0 0 0 
0 0 0 0 0 
0 0 0 0 0 
0 0 0 0 0 
0 0 0 0 0 
0 0 0 0 0 
0 0 0 0 0 
0.6979262245845155 -0.7917347235647239 -0.3822510099494414 -0.2331513026986787 -0.2632771227444571 
0.05874570950832370 -0.08485314226903187 -0.03997160191604275 -0.03839004343669895 -0.01875825726104632 
0 0 0 0 0 
0 0 0 0 0 
0 0 0 0 0 
0 0 0 0 0 
0 0 0 0 0 
0 0 0 0 0 
0 0 0 0 0 
0 0 0 0 0 
0 0 0 0 0 
0 0 0 0 0 
0 0 0 0 0 
0 0 0 0 0 
0 0 0 0 0 
0 0 0 0 0 
0 0 0 0 0 
0.08499310024192812 -0.2347386803937098 0.1012852217976435 0.02945228104390926 -0.02294556266094721 
0 0 0 0 0 
0.4066180124809430 -0.4012261919343211 -0.2559118182188257 -0.2422207019624424 -0.2161135089688213 
0 0 0 0 0 
0.4261394798947640 -0.3350959365996866 -0.2487943390293337 -0.2502611143587136 -0.1884395608201979 
0 0 0 0 0 
0 0 0 0 0 
0 0 0 0 0 
0.07632540687138631 0.002690336864043012 -0.05852183309362892 -0.04682164225621341 -0.01451864268354445 
0 0 0 0 0 
0 0 0 0 0 
0 0 0 0 0 
0 0 0 0 0 
0 0 0 0 0 
0 0 0 0 0 
0 0 0 0 0 
0 0 0 0 0 
0.08738904710911416 -0.009262315963812625 -0.02158990478600509 -0.04313206038380260 -0.005979393869770403 
0 0 0 0 0 
0 0 0 0 0 
0 0 0 0 0 
0 0 0 0 0 
0 0 0 0 0 
-0.002770072832287823 -0.06348169869770820 -0.02887699773921994 -0.01731996817773633 0.06381565849743923 
0 0 0 0 0 
0 0 0 0 0 
0 0 0 0 0 
0 0 0 0 0 
0 0 0 0 0 
0 0 0 0 0 
0 0 0 0 0 
0 0 0 0 0 
0.08799755570292456 -0.2038106422167089 -0.09844574539055374 -0.08464531070863436 -0.1322698595815181 
-0.09370910447478462 0.2146397027971007 -0.07475361487722466 -0.002083257171443338 -0.002177625483904019 
0 0 0 0 0 
0 0 0 0 0 
0 0 0 0 0 
0 0 0 0 0 
0 0 0 0 0 
0 0 0 0 0 
0 0 0 0 0 
0 0 0 0 0 
0 0 0 0 0 
0 0 0 0 0 
0 0 0 0 0 
-0.03241018723703080 -0.03109385195393268 0.1288697225405934 0.06742567236497635 -0.0003829190280530301 
0 0 0 0 0 
0 0 0 0 0 
0 0 0 0 0 
0 0 0 0 0 
0 0 0 0 0 
0 0 0 0 0 
-0.001693512623776717 -0.1429875150988758 0.03703288352384703 -0.01711061477474855 -0.01693362128344615 
0 0 0 0 0 
0 0 0 0 0 
0 0 0 0 0 
0 0 0 0 0 
0.1394631144622536 -0.1701336075661303 -0.1431042628093480 -0.1102969510346647 -0.1084356957949422 
0 0 0 0 0 
0 0 0 0 0 
0 0 0 0 0 
0 0 0 0 0 
0 0 0 0 0 
0 0 0 0 0 
0 0 0 0 0 
0 0 0 0 0 
0 0 0 0 0 
0 0 0 0 0 
0 0 0 0 0 
0 0 0 0 0 
0 0 0 0 0 
0 0 0 0 0 
0 0 0 0 0 
0 0 0 0 0 
0 0 0 0 0 
0 0 0 0 0 
0 0 0 0 0 
0 0 0 0 0 
0 0 0 0 0 
0 0 0 0 0 
0 0 0 0 0 
0 0 0 0 0 
0 0 0 0 0 
0 0 0 0 0 
0 0 0 0 0 
0 0 0 0 0 
-0.006489904883106105 -0.02638485007952247 0.1777432604336294 -0.003657797146267075 -0.001115658104524164 
0 0 0 0 0 
0 0 0 0 0 
0 0 0 0 0 
0 0 0 0 0 
0 0 0 0 0 
0 0 0 0 0 
0 0 0 0 0 
0 0 0 0 0 
0 0 0 0 0 
0 0 0 0 0 
0 0 0 0 0 
0 0 0 0 0 
0 0 0 0 0 
0 0 0 0 0 
0 0 0 0 0 
0 0 0 0 0 
0 0 0 0 0 
0 0 0 0 0 
-0.04286580308730503 0.09721163341449570 -0.1506757362895561 -0.1186191745919420 -0.08636350514651489 
0 0 0 0 0 
0 0 0 0 0 
0 0 0 0 0 
0 0 0 0 0 
0 0 0 0 0 
0 0 0 0 0 
0 0 0 0 0 
0 0 0 0 0 
0 0 0 0 0 
0 0 0 0 0 
0 0 0 0 0 
0 0 0 0 0 
0 0 0 0 0 
0 0 0 0 0 
0 0 0 0 0 
0 0 0 0 0 
0 0 0 0 0 
0 0 0 0 0 
0 0 0 0 0 
0 0 0 0 0 
0 0 0 0 0 
0 0 0 0 0 
0 0 0 0 0 
0 0 0 0 0 
0 0 0 0 0 
0.02157022487346846 -0.08262068144792654 0.02284356727406774 0.1653149670227352 -0.03770550091102475 
0 0 0 0 0 
-0.0001462937894867071 0.006043488319444956 0.08181488028046253 -0.001107274974793707 -0.0003813244933070702 
0 0 0 0 0 
0 0 0 0 0 
0 0 0 0 0 
-0.0006290612409846360 -0.02424516489551236 0.02272942841078390 0.07171807289799081 -7.361401303141663e-05 
0 0 0 0 0 
0 0 0 0 0 
0 0 0 0 0 
0 0 0 0 0 
0 0 0 0 0 
0 0 0 0 0 
0 0 0 0 0 
0 0 0 0 0 
0.04769707019852781 -0.05216098040822993 -0.07133707020900677 -0.01635064686203134 -0.03461233525905880 
0 0 0 0 0 
0 0 0 0 0 
0 0 0 0 0 
0 0 0 0 0 
0 0 0 0 0 
0 0 0 0 0 
0 0 0 0 0 
0 0 0 0 0 
0.0001948345282457093 -3.954798451158857e-05 -0.0002995737434685120 -2.913962518272077e-05 -4.700708525582154e-06 
-0.01372553925899425 -0.05608446769379934 -0.05930384216151528 -0.05592260825480552 0.2243927834390520 
0 0 0 0 0 
0 0 0 0 0 
0 0 0 0 0 
0 0 0 0 0 
0 0 0 0 0 
0 0 0 0 0 
0 0 0 0 0 
0 0 0 0 0 
0 0 0 0 0 
-0.06451535507482295 -0.1290538041438800 -0.01214257233192061 -0.02216455212003447 0.2623974228021391 
0 0 0 0 0 
0 0 0 0 0 
0 0 0 0 0 
0 0 0 0 0 
0 0 0 0 0 
0 0 0 0 0 
0 0 0 0 0 
0 0 0 0 0 
0 0 0 0 0 
0 0 0 0 0 
0 0 0 0 0 
0 0 0 0 0 
0 0 0 0 0 
0 0 0 0 0 
0 0 0 0 0 
0 0 0 0 0 
0 0 0 0 0 
0 0 0 0 0 
0 0 0 0 0 
0 0 0 0 0 
0 0 0 0 0 
0 0 0 0 0 
0 0 0 0 0 
0 0 0 0 0 
0 0 0 0 0 
0 0 0 0 0 
0 0 0 0 0 
0 0 0 0 0 
0 0 0 0 0 
0 0 0 0 0 
0 0 0 0 0 
0 0 0 0 0 
0 0 0 0 0 
0 0 0 0 0 
0 0 0 0 0 
0 0 0 0 0 
0 0 0 0 0 
0 0 0 0 0 
0 0 0 0 0 
0 0 0 0 0 
0 0 0 0 0 
0 0 0 0 0 
0 0 0 0 0 
0 0 0 0 0 
0 0 0 0 0 
0.08188516561199052 -0.03628881251430339 -0.02469949009813645 -0.02223195321806767 -0.02845893419564870 
0 0 0 0 0 
0 0 0 0 0 
0 0 0 0 0 
0 0 0 0 0 
0 0 0 0 0 
0 0 0 0 0 
-0.03173640605080842 -0.01840375342163300 0.05482964951303180 -0.0004068763450197882 -0.0008676602937733245 
-0.1736027328949528 0.2724724372359287 -0.02687945256330325 -0.01091893190768518 0.1018720271798965 
0.4299763672106757 -0.3008839104502015 -0.07857671826409975 -0.1466632471268100 -0.1083724423715944 
0 0 0 0 0 
0 0 0 0 0 
0.2022959775944507 -0.1012751077358687 0.007706645582122267 -0.05405787196849934 -0.03601952084319128 
0 0 0 0 0 
0 0 0 0 0 
0 0 0 0 0 
0 0 0 0 0 
0 0 0 0 0 
0 0 0 0 0 
-0.009870784640462088 0.08156830014597910 -0.02533554591973482 -0.004395246725168660 0.1564461037700780 
0 0 0 0 0 
0 0 0 0 0 
0 0 0 0 0 
0 0 0 0 0 
0 0 0 0 0 
0 0 0 0 0 
0 0 0 0 0 
-0.0006989020638208274 -0.01816370225608127 -0.001625997191994987 -0.001913709505472561 0.1564583734989498 
0 0 0 0 0 
0 0 0 0 0 
0 0 0 0 0 
0 0 0 0 0 
0 0 0 0 0 
0 0 0 0 0 
0 0 0 0 0 
0 0 0 0 0 
0 0 0 0 0 
0 0 0 0 0 
0.05542523297808772 -0.06254821278549999 -0.06965927206124124 -0.04733315631978557 -0.08967078751738620 
0 0 0 0 0 
0 0 0 0 0 
3.634732908126305e-06 0.03308477825105720 -0.01376369174156700 -0.01302275395467736 -0.01463105664026134 
0 0 0 0 0 
0 0 0 0 0 
0 0 0 0 0 
0 0 0 0 0 
0 0 0 0 0 
0 0 0 0 0 
0 0 0 0 0 
0 0 0 0 0 
0 0 0 0 0 
0 0 0 0 0 
0 0 0 0 0 
0 0 0 0 0 
0 0 0 0 0 
0 0 0 0 0 
0 0 0 0 0 
0 0 0 0 0 
0 0 0 0 0 
0.2513076095851060 -0.2218450931216759 0.04209000629291294 -0.04558238275190467 -0.1429949561259667 
0 0 0 0 0 
0 0 0 0 0 
0 0 0 0 0 
0 0 0 0 0 
0 0 0 0 0 
0 0 0 0 0 
0 0 0 0 0 
0 0 0 0 0 
0 0 0 0 0 
0 0 0 0 0 
0 0 0 0 0 
0 0 0 0 0 
0 0 0 0 0 
0 0 0 0 0 
0 0 0 0 0 
0 0 0 0 0 
0 0 0 0 0 
0 0 0 0 0 
0 0 0 0 0 
0 0 0 0 0 
0 0 0 0 0 
0 0 0 0 0 
0 0 0 0 0 
0 0 0 0 0 
0 0 0 0 0 
0 0 0 0 0 
0 0 0 0 0 
0 0 0 0 0 
0 0 0 0 0 
0 0 0 0 0 
0 0 0 0 0 
0 0 0 0 0 
0 0 0 0 0 
0 0 0 0 0 
0 0 0 0 0 
0 0 0 0 0 
0 0 0 0 0 
0 0 0 0 0 
0 0 0 0 0 
0 0 0 0 0 
0 0 0 0 0 
0 0 0 0 0 
0 0 0 0 0 
0 0 0 0 0 
0 0 0 0 0 
0 0 0 0 0 
0 0 0 0 0 
0 0 0 0 0 
0.1405188416872451 -0.06653105309508194 -0.08180169203837144 -0.04605590601886942 -0.04956697954895930 
0 0 0 0 0 
0 0 0 0 0 
0 0 0 0 0 
0 0 0 0 0 
0 0 0 0 0 
0 0 0 0 0 
0 0 0 0 0 
0 0 0 0 0 
0 0 0 0 0 
0 0 0 0 0 
0 0 0 0 0 
0 0 0 0 0 
0 0 0 0 0 
0 0 0 0 0 
0 0 0 0 0 
0 0 0 0 0 
0 0 0 0 0 
0 0 0 0 0 
0 0 0 0 0 
0 0 0 0 0 
-0.002658635880871486 0.04096280456946249 -0.02775764108521565 -0.001372048730313360 -0.004876903219435011 
0 0 0 0 0 
0 0 0 0 0 
0 0 0 0 0 
0 0 0 0 0 
0 0 0 0 0 
0 0 0 0 0 
0 0 0 0 0 
0 0 0 0 0 
0 0 0 0 0 
0 0 0 0 0 
0 0 0 0 0 
0 0 0 0 0 
0 0 0 0 0 
0 0 0 0 0 
0 0 0 0 0 
0 0 0 0 0 
0 0 0 0 0 
0 0 0 0 0 
0 0 0 0 0 
0 0 0 0 0 
0 0 0 0 0 
0 0 0 0 0 
0 0 0 0 0 
0.5543563085940787 -0.4165811827736478 -0.09057954872214904 0.1212956167247992 -0.02058581615309656 
0 0 0 0 0 
0 0 0 0 0 
0 0 0 0 0 
0 0 0 0 0 
0 0 0 0 0 
0 0 0 0 0 
-0.009959097721435004 0.1058641478071394 -0.003804477116015810 -0.0004057326079264254 -0.002190932883680330 
0 0 0 0 0 
0 0 0 0 0 
0 0 0 0 0 
0 0 0 0 0 
0.5042346217165439 -0.4084465308128058 -0.3362048536619212 -0.2250761016479213 -0.1972474222849752 
0 0 0 0 0 
0 0 0 0 0 
0 0 0 0 0 
0 0 0 0 0 
0 0 0 0 0 
0 0 0 0 0 
0 0 0 0 0 
0 0 0 0 0 
0 0 0 0 0 
-0.05863357232924164 0.04398842714602369 -0.02061576911070967 0.09391698300809959 -0.004891737792078551 
0 0 0 0 0 
0 0 0 0 0 
0 0 0 0 0 
0 0 0 0 0 
0 0 0 0 0 
0 0 0 0 0 
0 0 0 0 0 
0 0 0 0 0 
0 0 0 0 0 
0 0 0 0 0 
0 0 0 0 0 
0 0 0 0 0 
0 0 0 0 0 
0 0 0 0 0 
-0.007643047636994426 -0.0007386581360965580 -5.614342465850345e-05 -6.591668939292071e-06 0.02828419839058762 
0 0 0 0 0 
0 0 0 0 0 
0 0 0 0 0 
0 0 0 0 0 
-0.2860883940791965 0.3908634788037044 -0.1638236915326871 -0.4099732090646184 0.4140068159432613 
0 0 0 0 0 
0 0 0 0 0 
0 0 0 0 0 
-0.001380776573309276 -0.1064319521904817 -0.01356605509045740 -0.0007358815311816555 0.1004715338674085 
0 0 0 0 0 
0 0 0 0 0 
0 0 0 0 0 
0 0 0 0 0 
0 0 0 0 0 
0 0 0 0 0 
0 0 0 0 0 
0 0 0 0 0 
0 0 0 0 0 
0 0 0 0 0 
0.05288537511548250 0.1908608088918495 0.05379395278920732 0.1026460382957609 -0.01949011618310627 
0 0 0 0 0 
0 0 0 0 0 
0 0 0 0 0 
0 0 0 0 0 
0 0 0 0 0 
0 0 0 0 0 
0 0 0 0 0 
0 0 0 0 0 
0 0 0 0 0 
0 0 0 0 0 
0 0 0 0 0 
0 0 0 0 0 
0 0 0 0 0 
0 0 0 0 0 
0 0 0 0 0 
0 0 0 0 0 
0 0 0 0 0 
0 0 0 0 0 
0 0 0 0 0 
0 0 0 0 0 
0 0 0 0 0 
-0.08820864707754442 0.05554749236503641 0.1070281650225210 -0.07222642881817515 -0.1008405659039607 
-0.1426606449363605 0.08884924806604687 0.1682796198529588 -0.05011704426103858 -0.08413656035352775 
0 0 0 0 0 
0 0 0 0 0 
0 0 0 0 0 
0 0 0 0 0 
0 0 0 0 0 
0 0 0 0 0 
0 0 0 0 0 
0 0 0 0 0 
0 0 0 0 0 
0 0 0 0 0 
0 0 0 0 0 
0 0 0 0 0 
0 0 0 0 0 
0 0 0 0 0 
0 0 0 0 0 
0 0 0 0 0 
0 0 0 0 0 
0 0 0 0 0 
0 0 0 0 0 
0.09566705091937193 -0.1318969864954907 -0.09218861975172657 -0.1137057092112149 -0.1371254931144143 
0 0 0 0 0 
0 0 0 0 0 
0 0 0 0 0 
0 0 0 0 0 
0 0 0 0 0 
0 0 0 0 0 
0 0 0 0 0 
0 0 0 0 0 
0 0 0 0 0 
0 0 0 0 0 
0 0 0 0 0 
0 0 0 0 0 
0 0 0 0 0 
0 0 0 0 0 
0 0 0 0 0 
0 0 0 0 0 
0 0 0 0 0 
0 0 0 0 0 
0 0 0 0 0 
0 0 0 0 0 
0 0 0 0 0 
0 0 0 0 0 
0 0 0 0 0 
0.2892161410746204 -0.1631092939008359 -0.6141833812997319 -0.1959820548243193 -0.08907580918540403 
0 0 0 0 0 
0 0 0 0 0 
0 0 0 0 0 
0 0 0 0 0 
0 0 0 0 0 
0 0 0 0 0 
0 0 0 0 0 
0 0 0 0 0 
-0.003647310646063057 0.05846906163922200 -0.06900430414228088 0.008505626314721140 -0.0003981816055202992 
0 0 0 0 0 
0 0 0 0 0 
0 0 0 0 0 
0 0 0 0 0 
0 0 0 0 0 
0 0 0 0 0 
0 0 0 0 0 
0 0 0 0 0 
0 0 0 0 0 
0 0 0 0 0 
0 0 0 0 0 
0 0 0 0 0 
0 0 0 0 0 
0.3065694896053267 -0.1875440917245558 0.06098524441655594 -0.03923502968762922 -0.03042600602935275 
0 0 0 0 0 
0 0 0 0 0 
0 0 0 0 0 
0 0 0 0 0 
0 0 0 0 0 
0 0 0 0 0 
0 0 0 0 0 
0 0 0 0 0 
0 0 0 0 0 
0 0 0 0 0 
0 0 0 0 0 
0 0 0 0 0 
0.03119475480442292 -0.008353482624648906 -0.003616996634147584 -0.002540610840288131 -0.003103001529846012 
0 0 0 0 0 
0 0 0 0 0 
0 0 0 0 0 
0 0 0 0 0 
0 0 0 0 0 
-0.02294805983104394 0.04686687850025061 0.04727479130663770 -0.0002462128165410401 -0.0007057504327600468 
0 0 0 0 0 
0 0 0 0 0 
0 0 0 0 0 
0.04718834062929689 -0.01198232427257490 -0.02192828027813161 -0.05643088958951745 -0.006571884942684922 
0 0 0 0 0 
0 0 0 0 0 
0 0 0 0 0 
0 0 0 0 0 
0 0 0 0 0 
0 0 0 0 0 
0 0 0 0 0 
0 0 0 0 0 
0 0 0 0 0 
0 0 0 0 0 
0 0 0 0 0 
0 0 0 0 0 
0 0 0 0 0 
-0.2791365268589165 0.06490285815365716 -0.2331726882856014 -0.06770530658946369 -0.003752825675839680 
0 0 0 0 0 
0 0 0 0 0 
0 0 0 0 0 
0 0 0 0 0 
-0.4966112805116929 0.1437741940730167 -0.07773563413614690 -0.04022128120475988 -0.3446235129201767 
0 0 0 0 0 
0 0 0 0 0 
0 0 0 0 0 
0 0 0 0 0 
0 0 0 0 0 
0 0 0 0 0 
-0.0001941379997551342 0.08602340400665157 -0.003322541507623346 -0.003935909209251233 -0.001385323511715519 
0 0 0 0 0 
0.09105586007770748 -0.006593408805214515 -0.01947902317356809 -0.006665375961444778 -0.02906249853982022 
0 0 0 0 0 
0 0 0 0 0 
0 0 0 0 0 
0 0 0 0 0 
0 0 0 0 0 
0 0 0 0 0 
0 0 0 0 0 
-0.04248939880443737 0.06162117927435737 0.1875348043726702 -0.3080725492289912 -0.1643562814768326 
0 0 0 0 0 
0 0 0 0 0 
0 0 0 0 0 
0.02431965842908810 -0.06837484531651349 -0.008425423147964572 -0.008333280372248590 -0.002740343622686756 
0 0 0 0 0 
0 0 0 0 0 
0 0 0 0 0 
0 0 0 0 0 
0 0 0 0 0 
0 0 0 0 0 
0 0 0 0 0 
0 0 0 0 0 
0 0 0 0 0 
0 0 0 0 0 
0 0 0 0 0 
0 0 0 0 0 
0 0 0 0 0 
0 0 0 0 0 
0 0 0 0 0 
0 0 0 0 0 
0 0 0 0 0 
0 0 0 0 0 
0 0 0 0 0 
0 0 0 0 0 
0 0 0 0 0 
0 0 0 0 0 
0 0 0 0 0 
0 0 0 0 0 
0 0 0 0 0 
0 0 0 0 0 
0 0 0 0 0 
0 0 0 0 0 
0 0 0 0 0 
-0.001503745091719604 0.01260298732012566 -0.01668917912265818 -0.001159105038627409 -0.0009742068481763381 
0.3247145313360226 0.01339013509295360 -0.5792222344994472 -0.6071660542864902 -0.6137970720767761 
0 0 0 0 0 
0 0 0 0 0 
0 0 0 0 0 
0 0 0 0 0 
0 0 0 0 0 
0 0 0 0 0 
0.01543575610383349 -0.001349146936351947 -0.002017034352937094 -0.0006349607745306865 -0.001840703654150028 
0 0 0 0 0 
0.002375093225038727 -0.006347631674051707 -0.0009627857277439964 -0.0005480661720492803 -0.003039402605891192 
0 0 0 0 0 
0 0 0 0 0 
0 0 0 0 0 
0 0 0 0 0 
0 0 0 0 0 
0 0 0 0 0 
0 0 0 0 0 
0 0 0 0 0 
0 0 0 0 0 
-0.02128165096768421 -0.05737015011914514 -0.003579994277646711 0.09376129154746507 -0.008525741457296242 
0 0 0 0 0 
0 0 0 0 0 
0 0 0 0 0 
0 0 0 0 0 
0 0 0 0 0 
0 0 0 0 0 
0 0 0 0 0 
0 0 0 0 0 
0 0 0 0 0 
0 0 0 0 0 
0 0 0 0 0 
0 0 0 0 0 
0 0 0 0 0 
0 0 0 0 0 
0 0 0 0 0 
0 0 0 0 0 
0 0 0 0 0 
0 0 0 0 0 
0 0 0 0 0 
0 0 0 0 0 
0 0 0 0 0 
0.05270325688437184 -0.09796122477889917 -0.04294652834787131 -0.01107226783138008 -0.02935652990003181 
0 0 0 0 0 
0 0 0 0 0 
0 0 0 0 0 
0 0 0 0 0 
0 0 0 0 0 
0 0 0 0 0 
0 0 0 0 0 
0 0 0 0 0 
0 0 0 0 0 
0 0 0 0 0 
0 0 0 0 0 
0 0 0 0 0 
0 0 0 0 0 
0 0 0 0 0 
0 0 0 0 0 
0 0 0 0 0 
0 0 0 0 0 
0 0 0 0 0 
0 0 0 0 0 
0 0 0 0 0 
0 0 0 0 0 
0 0 0 0 0 
-0.04787936155227229 -0.006270529298255191 0.1516450216832219 -0.002951046572384308 -0.001737107343340147 
0.001154915557395030 -0.001274440028030359 -0.0002625110081995583 -8.351386185633711e-05 -0.0001951772387223144 
0.05321838928605107 -0.02643601890059859 -0.01320003735211933 -0.07050996089519465 -0.009145462444027865 
0 0 0 0 0 
0 0 0 0 0 
0 0 0 0 0 
0 0 0 0 0 
0 0 0 0 0 
0 0 0 0 0 
0 0 0 0 0 
0.01104461470703990 -0.03173307561004794 -0.02300626604665686 -0.008137533488920120 -0.005715374431812812 
0 0 0 0 0 
0 0 0 0 0 
0 0 0 0 0 
0 0 0 0 0 
0 0 0 0 0 
0 0 0 0 0 
0 0 0 0 0 
0 0 0 0 0 
0 0 0 0 0 
0 0 0 0 0 
0 0 0 0 0 
0 0 0 0 0 
0 0 0 0 0 
0 0 0 0 0 
0 0 0 0 0 
0 0 0 0 0 
0 0 0 0 0 
0 0 0 0 0 
0 0 0 0 0 
0 0 0 0 0 
0 0 0 0 0 
0 0 0 0 0 
0 0 0 0 0 
0 0 0 0 0 
0 0 0 0 0 
0 0 0 0 0 
0 0 0 0 0 
0 0 0 0 0 
0 0 0 0 0 
0 0 0 0 0 
0 0 0 0 0 
0 0 0 0 0 
0 0 0 0 0 
0 0 0 0 0 
0.05317773129116570 -0.09267709383875300 -0.02360239522884744 -0.03489242348420220 -0.006747292322107917 
0 0 0 0 0 
-0.0001192739386850383 -0.01910393148623095 -0.01202731962360745 0.06837343515063622 -0.001778463534373852 
0 0 0 0 0 
0 0 0 0 0 
0 0 0 0 0 
0 0 0 0 0 
0 0 0 0 0 
0 0 0 0 0 
0 0 0 0 0 
0 0 0 0 0 
0 0 0 0 0 
0 0 0 0 0 
0 0 0 0 0 
0 0 0 0 0 
0 0 0 0 0 
0.1730616105139312 -0.08104354703707044 -0.1061960598909162 -0.03561567748417959 -0.04415832109803238 
0 0 0 0 0 
0 0 0 0 0 
0 0 0 0 0 
0 0 0 0 0 
0 0 0 0 0 
0 0 0 0 0 
0 0 0 0 0 
0.04835186994597848 -0.06989450319446530 -0.009273124519172801 -0.002372806224628975 -0.001351413920997109 
0 0 0 0 0 
0 0 0 0 0 
0 0 0 0 0 
0 0 0 0 0 
0 0 0 0 0 
0 0 0 0 0 
0 0 0 0 0 
0 0 0 0 0 
0 0 0 0 0 
0.007006289427289013 -0.003834522069327906 -0.0003298596934606972 -0.0003419275622119943 -0.003860854239556490 
0 0 0 0 0 
0 0 0 0 0 
0 0 0 0 0 
0 0 0 0 0 
0 0 0 0 0 
0.007006289427289013 -0.003834522069327906 -0.0003298596934606972 -0.0003419275622119943 -0.003860854239556490 
0 0 0 0 0 
0 0 0 0 0 
0 0 0 0 0 
0 0 0 0 0 
0 0 0 0 0 
0 0 0 0 0 
0 0 0 0 0 
0.03651233680293581 0.05252951213138180 -0.003808720356475082 -0.005445766083427455 -0.01986336216484414 
0 0 0 0 0 
0 0 0 0 0 
0 0 0 0 0 
0 0 0 0 0 
0 0 0 0 0 
0 0 0 0 0 
0 0 0 0 0 
0 0 0 0 0 
0 0 0 0 0 
0 0 0 0 0 
-0.01166132329682992 0.07070349605290135 -0.0003234707504819111 -0.004381203615406657 -0.01697383736508685 
0 0 0 0 0 
0 0 0 0 0 
0 0 0 0 0 
0 0 0 0 0 
0 0 0 0 0 
0 0 0 0 0 
0 0 0 0 0 
0 0 0 0 0 
0 0 0 0 0 
0 0 0 0 0 
0 0 0 0 0 
0 0 0 0 0 
0 0 0 0 0 
0 0 0 0 0 
0 0 0 0 0 
0 0 0 0 0 
0 0 0 0 0 
-6.344142647445763e-05 0.02191712186246058 -0.001925163830150516 -9.791043278583111e-06 -1.828769483246507e-05 
0 0 0 0 0 
-0.5536060923639360 0.3808038495948743 0.05963185788209633 -0.1091639028812229 0.009973651739205199 
0 0 0 0 0 
0 0 0 0 0 
0 0 0 0 0 
0 0 0 0 0 
0 0 0 0 0 
0 0 0 0 0 
0 0 0 0 0 
0 0 0 0 0 
0 0 0 0 0 
0.02185942110009598 -0.02324233138668005 -0.01802004054890649 -0.01309602030844104 -0.02679282352254001 
0 0 0 0 0 
0 0 0 0 0 
0 0 0 0 0 
0 0 0 0 0 
0 0 0 0 0 
0 0 0 0 0 
0 0 0 0 0 
0 0 0 0 0 
0 0 0 0 0 
0 0 0 0 0 
0 0 0 0 0 
0 0 0 0 0 
0 0 0 0 0 
-0.008922452269569364 -0.2433162167477279 0.1397229832210923 -0.03431661053614792 0.09307960530785647 
0 0 0 0 0 
0 0 0 0 0 
0 0 0 0 0 
0 0 0 0 0 
0 0 0 0 0 
0 0 0 0 0 
0 0 0 0 0 
0 0 0 0 0 
0 0 0 0 0 
0 0 0 0 0 
0 0 0 0 0 
0 0 0 0 0 
0 0 0 0 0 
0 0 0 0 0 
0 0 0 0 0 
0 0 0 0 0 
0 0 0 0 0 
0 0 0 0 0 
0 0 0 0 0 
0 0 0 0 0 
0 0 0 0 0 
0 0 0 0 0 
0 0 0 0 0 
0 0 0 0 0 
0 0 0 0 0 
0 0 0 0 0 
0 0 0 0 0 
0 0 0 0 0 
0 0 0 0 0 
0 0 0 0 0 
0 0 0 0 0 
0 0 0 0 0 
0 0 0 0 0 
0 0 0 0 0 
0 0 0 0 0 
0 0 0 0 0 
0 0 0 0 0 
0 0 0 0 0 
0 0 0 0 0 
0 0 0 0 0 
0 0 0 0 0 
0 0 0 0 0 
0 0 0 0 0 
0 0 0 0 0 
0 0 0 0 0 
0 0 0 0 0 
0 0 0 0 0 
-0.2681709907362869 0.2272069201877046 0.07757133022817489 -0.1081400307195068 -0.2518522727268045 
0 0 0 0 0 
0 0 0 0 0 
0 0 0 0 0 
0 0 0 0 0 
0 0 0 0 0 
0 0 0 0 0 
0 0 0 0 0 
0 0 0 0 0 
0 0 0 0 0 
0 0 0 0 0 
0 0 0 0 0 
0 0 0 0 0 
0 0 0 0 0 
0 0 0 0 0 
0 0 0 0 0 
0 0 0 0 0 
0 0 0 0 0 
0.05014807249443617 0.04796659478047013 -0.2235337781560964 -0.2829348384784974 -0.1408520910703604 
0 0 0 0 0 
0 0 0 0 0 
-0.03502219746822004 -0.007987349642726040 -0.0002820990825840669 -1.646298396841963e-05 0.08219169862130642 
0 0 0 0 0 
0.06733482868722904 -0.1048599928685617 -0.01168872365962875 -0.002713656593187534 -0.01116954149027578 
0 0 0 0 0 
0 0 0 0 0 
0 0 0 0 0 
0 0 0 0 0 
0.03098278010179752 0.02923193509673012 -0.1286613685275913 -0.06610480245543811 -0.01712525630554453 
0 0 0 0 0 
0 0 0 0 0 
0 0 0 0 0 
0 0 0 0 0 
0 0 0 0 0 
0 0 0 0 0 
0 0 0 0 0 
0 0 0 0 0 
0 0 0 0 0 
0 0 0 0 0 
0 0 0 0 0 
0 0 0 0 0 
0 0 0 0 0 
0 0 0 0 0 
0 0 0 0 0 
0 0 0 0 0 
0 0 0 0 0 
0 0 0 0 0 
0 0 0 0 0 
0 0 0 0 0 
0 0 0 0 0 
0 0 0 0 0 
0 0 0 0 0 
0 0 0 0 0 
0 0 0 0 0 
0 0 0 0 0 
0 0 0 0 0 
0 0 0 0 0 
0 0 0 0 0 
0 0 0 0 0 
0 0 0 0 0 
0 0 0 0 0 
0 0 0 0 0 
0 0 0 0 0 
0 0 0 0 0 
0 0 0 0 0 
0 0 0 0 0 
0 0 0 0 0 
0 0 0 0 0 
0 0 0 0 0 
0 0 0 0 0 
0 0 0 0 0 
0 0 0 0 0 
0.6395714701155532 -0.8155072353192350 -0.3261870394397407 -0.02663665003492165 -0.4984658172374591 
-0.0003473574823878791 -0.01191302755995139 -0.02928203049509355 0.06356844283086431 -0.0001932785204968834 
0 0 0 0 0 
0 0 0 0 0 
-0.001641862461723049 -0.1309564491897144 0.06528837272086344 -0.03293332519266785 0.005628104545224839 
0 0 0 0 0 
0 0 0 0 0 
0 0 0 0 0 
0 0 0 0 0 
-0.01993162668010647 0.02958256747974242 -0.001609203302308197 -0.007306646475228077 -0.0001420912947527890 
0 0 0 0 0 
0 0 0 0 0 
0 0 0 0 0 
0.06450504451695438 -0.09273566705610427 -0.07906995187988164 -0.1016297289070020 -0.05446975295246061 
0 0 0 0 0 
0 0 0 0 0 
-0.1700666197978476 -0.1017790209616974 0.08895307541593937 0.3510488389752915 -0.02942578319337379 
0 0 0 0 0 
0 0 0 0 0 
0 0 0 0 0 
0 0 0 0 0 
-0.07228548733134144 0.1575276109930432 -0.01003232813460059 -0.006448964727871989 -0.001262612027733499 
0 0 0 0 0 
0 0 0 0 0 
0 0 0 0 0 
-0.03828373942004805 0.1648432913909709 0.1014942668639360 -0.03510038678776561 -0.05322345009573490 
0 0 0 0 0 
0 0 0 0 0 
0 0 0 0 0 
0 0 0 0 0 
0 0 0 0 0 
0 0 0 0 0 
0 0 0 0 0 
0 0 0 0 0 
0 0 0 0 0 
0 0 0 0 0 
0 0 0 0 0 
0 0 0 0 0 
0 0 0 0 0 
0 0 0 0 0 
0.02793719974151270 -0.04707399859774090 0.04135706748305561 -0.02105578067951128 -0.001274805236171380 
0 0 0 0 0 
0 0 0 0 0 
0 0 0 0 0 
0.002227230353415613 -0.0006368811658088848 -0.02629747324251505 -0.002052854784399824 -0.006055250248688518 
0 0 0 0 0 
0 0 0 0 0 
-0.007710704093597249 -0.004004402844959396 0.03417745753817378 -0.001367643622915433 -0.0001370172948390484 
0 0 0 0 0 
0 0 0 0 0 
0 0 0 0 0 
0 0 0 0 0 
0 0 0 0 0 
0 0 0 0 0 
0 0 0 0 0 
0 0 0 0 0 
0.2247358500544443 -0.1408361775888887 -0.02896281458876123 -0.1410657934847446 -0.04015969678193226 
0 0 0 0 0 
-0.02561412640580938 -0.0001847794339061992 0.08482309571591108 -4.827556438734161e-05 -3.559100199025959e-06 
0 0 0 0 0 
0 0 0 0 0 
0 0 0 0 0 
0 0 0 0 0 
-0.05048863517098383 0.3564826099043772 -0.1536452246289588 -0.03217073018686639 -0.05940204463839298 
0 0 0 0 0 
0 0 0 0 0 
0 0 0 0 0 
0 0 0 0 0 
0.05794895896319662 -0.2402568550410202 0.04691899711387918 -0.04844777613312005 -0.01254254103878751 
-0.005967829240512874 -0.02496156236015228 -0.01152127633077726 0.1461855014960912 -0.001449224036143369 
0 0 0 0 0 
0 0 0 0 0 
0 0 0 0 0 
-0.0007684948731677062 -0.1573347334801811 -0.01202961895017501 -0.01183426756321952 0.1140468752148497 
0 0 0 0 0 
0 0 0 0 0 
0 0 0 0 0 
0 0 0 0 0 
0 0 0 0 0 
0 0 0 0 0 
0 0 0 0 0 
0.004728684671879677 0.03962046002866181 -0.004669397676535896 -0.01068312280128307 -0.04165946674868028 
0 0 0 0 0 
0 0 0 0 0 
-0.06849721199595257 0.1242418084786359 -0.02111944263765631 -0.002936126478898561 -0.001730851631265931 
0 0 0 0 0 
0 0 0 0 0 
0 0 0 0 0 
0 0 0 0 0 
-0.004412133190073270 0.07467280182982522 -0.01817265368827439 0.04004332130416571 -0.006882877408201783 
0 0 0 0 0 
0 0 0 0 0 
-0.03017735542679993 0.08503807005292373 -0.0006285479961072000 -0.0003847335242588671 -6.056034775611688e-06 
0 0 0 0 0 
0 0 0 0 0 
0 0 0 0 0 
-0.001809843082472756 -0.1386460994403897 0.1389461408729617 -0.006759523499011051 -0.0001373325478265783 
0 0 0 0 0 
0 0 0 0 0 
0 0 0 0 0 
-0.05509946723990349 0.007848923812018260 -0.03217685159204104 -0.02189385057372243 -0.004499676698526454 
0 0 0 0 0 
0 0 0 0 0 
0 0 0 0 0 
0 0 0 0 0 
0.0006191912918274579 0.02726731960586386 -0.04166091348590219 -0.006840181085305002 -0.009672895933802850 
0 0 0 0 0 
0 0 0 0 0 
0 0 0 0 0 
0 0 0 0 0 
0 0 0 0 0 
0 0 0 0 0 
0 0 0 0 0 
0 0 0 0 0 
0 0 0 0 0 
0 0 0 0 0 
0 0 0 0 0 
0 0 0 0 0 
0 0 0 0 0 
0 0 0 0 0 
0 0 0 0 0 
0 0 0 0 0 
-0.2148107994833944 0.2091743582759768 0.07520833790893966 0.007305570993161229 0.1517528910119884 
0 0 0 0 0 
0 0 0 0 0 
0 0 0 0 0 
0 0 0 0 0 
0 0 0 0 0 
0 0 0 0 0 
0 0 0 0 0 
0 0 0 0 0 
0 0 0 0 0 
-0.2028292271209586 0.06482909194169310 0.1011428105287045 -0.02573688365708707 0.08685822534441394 
0 0 0 0 0 
0 0 0 0 0 
0 0 0 0 0 
0 0 0 0 0 
0 0 0 0 0 
0 0 0 0 0 
0 0 0 0 0 
0 0 0 0 0 
-0.001313152328631138 -0.04458436845937999 0.06761103398107182 -0.003686800980677405 -0.005272725707441243 
0 0 0 0 0 
0 0 0 0 0 
0 0 0 0 0 
0 0 0 0 0 
0 0 0 0 0 
0 0 0 0 0 
-0.0001249642319019919 -0.06976810640657789 0.06761771132000598 -0.001397374781000605 -0.002971761105998663 
0 0 0 0 0 
0 0 0 0 0 
0.03091711432586177 -0.05338803374121599 -0.001091214870445938 -0.0005664902369661496 -0.006392127707818918 
0 0 0 0 0 
0 0 0 0 0 
0 0 0 0 0 
0 0 0 0 0 
-0.01960645739978749 -0.02160169432097909 -0.0003741515112579957 -0.0002994223609102811 0.1144011557644720 
0 0 0 0 0 
0 0 0 0 0 
0 0 0 0 0 
0 0 0 0 0 
0 0 0 0 0 
0 0 0 0 0 
0 0 0 0 0 
0 0 0 0 0 
0 0 0 0 0 
0 0 0 0 0 
0.02356959805073047 -0.02783241562851669 -0.007848452996568993 -0.002290712133941506 -0.001629645312748699 
0 0 0 0 0 
0 0 0 0 0 
0 0 0 0 0 
0 0 0 0 0 
0 0 0 0 0 
0.5697468142366858 -0.2205731491061033 -0.2774357635714587 -0.02091081409113567 -0.3340624406279569 
0 0 0 0 0 
0 0 0 0 0 
0 0 0 0 0 
0 0 0 0 0 
0 0 0 0 0 
0 0 0 0 0 
0 0 0 0 0 
0 0 0 0 0 
0 0 0 0 0 
0 0 0 0 0 
0 0 0 0 0 
0.05753569545456406 -0.1004091348923168 -0.05863124872592387 -0.07078388932682908 -0.05531480219091862 
0 0 0 0 0 
0 0 0 0 0 
0 0 0 0 0 
0 0 0 0 0 
0 0 0 0 0 
0 0 0 0 0 
0 0 0 0 0 
0 0 0 0 0 
0 0 0 0 0 
0 0 0 0 0 
0 0 0 0 0 
0 0 0 0 0 
0 0 0 0 0 
0 0 0 0 0 
0 0 0 0 0 
-0.1776916077068519 0.3480791870117107 -0.04678620586350567 -0.02840223462187728 -0.02551539310808044 
0 0 0 0 0 
0 0 0 0 0 
-0.1529132968884080 0.2779036082099394 -0.04440073176872570 -0.02771580183769883 -0.02493293261420679 
0 0 0 0 0 
0 0 0 0 0 
0 0 0 0 0 
0 0 0 0 0 
0 0 0 0 0 
0 0 0 0 0 
0 0 0 0 0 
0 0 0 0 0 
0 0 0 0 0 
0 0 0 0 0 
0 0 0 0 0 
0 0 0 0 0 
0 0 0 0 0 
0 0 0 0 0 
0 0 0 0 0 
0 0 0 0 0 
0 0 0 0 0 
0 0 0 0 0 
0 0 0 0 0 
0 0 0 0 0 
0 0 0 0 0 
0 0 0 0 0 
0 0 0 0 0 
0 0 0 0 0 
0 0 0 0 0 
0 0 0 0 0 
0 0 0 0 0 
-0.3829919584454559 0.5125341405549816 0.1482539046271211 -0.08868855831068108 0.01577758928901262 
0 0 0 0 0 
0 0 0 0 0 
0 0 0 0 0 
0 0 0 0 0 
0 0 0 0 0 
0 0 0 0 0 
0 0 0 0 0 
-0.07288910080059151 0.03959699034901435 0.1313112021746846 -0.005719692193817544 -0.004901106839680865 
0 0 0 0 0 
0 0 0 0 0 
0 0 0 0 0 
0 0 0 0 0 
0 0 0 0 0 
0 0 0 0 0 
0 0 0 0 0 
0 0 0 0 0 
0 0 0 0 0 
0 0 0 0 0 
0 0 0 0 0 
-0.08682391155881596 0.2928967589443285 -0.02398115724135045 -0.007876009584758559 -0.006967217362670800 
0 0 0 0 0 
0 0 0 0 0 
0 0 0 0 0 
0 0 0 0 0 
0 0 0 0 0 
0 0 0 0 0 
0 0 0 0 0 
0 0 0 0 0 
0 0 0 0 0 
0 0 0 0 0 
0 0 0 0 0 
0 0 0 0 0 
-0.2593800774205429 -0.5028210927653688 0.2323807395565759 0.1305377011878919 0.01101413184176307 
0 0 0 0 0 
0 0 0 0 0 
0 0 0 0 0 
0 0 0 0 0 
0 0 0 0 0 
0 0 0 0 0 
0 0 0 0 0 
0 0 0 0 0 
0 0 0 0 0 
0 0 0 0 0 
0 0 0 0 0 
0 0 0 0 0 
0 0 0 0 0 
0 0 0 0 0 
0 0 0 0 0 
0.008007406856556569 -0.0004667016899198728 -0.003332675037811132 -0.003474131358378736 -0.0003993624534738489 
0 0 0 0 0 
0 0 0 0 0 
0 0 0 0 0 
0 0 0 0 0 
0.002261321889918408 -0.2930593079900594 0.06994924314474044 0.04444606720667617 -0.04497888234299716 
0 0 0 0 0 
0 0 0 0 0 
0 0 0 0 0 
0 0 0 0 0 
0 0 0 0 0 
0 0 0 0 0 
0 0 0 0 0 
0 0 0 0 0 
0 0 0 0 0 
-0.07718804452607564 -0.08213980485846661 0.4009004947929580 -0.01643664806480953 -0.0004385807633623962 
0 0 0 0 0 
0 0 0 0 0 
0 0 0 0 0 
0 0 0 0 0 
0 0 0 0 0 
0 0 0 0 0 
0 0 0 0 0 
0 0 0 0 0 
